{"learner":{"attributes":{"best_iteration":"1","best_ntree_limit":"2","best_score":"0.24104549854791868","scikit_learn":"{\"use_label_encoder\": null, \"n_estimators\": 100, \"objective\": \"binary:logistic\", \"max_depth\": 30, \"max_leaves\": null, \"max_bin\": null, \"grow_policy\": null, \"learning_rate\": 0.07, \"verbosity\": null, \"booster\": null, \"tree_method\": null, \"gamma\": 7, \"min_child_weight\": null, \"max_delta_step\": null, \"subsample\": null, \"sampling_method\": null, \"colsample_bytree\": null, \"colsample_bylevel\": null, \"colsample_bynode\": null, \"reg_alpha\": null, \"reg_lambda\": null, \"scale_pos_weight\": null, \"base_score\": null, \"missing\": NaN, \"num_parallel_tree\": null, \"random_state\": 111, \"n_jobs\": null, \"monotone_constraints\": null, \"interaction_constraints\": null, \"importance_type\": null, \"gpu_id\": null, \"validate_parameters\": null, \"predictor\": null, \"enable_categorical\": false, \"feature_types\": null, \"max_cat_to_onehot\": null, \"max_cat_threshold\": null, \"eval_metric\": \"error\", \"early_stopping_rounds\": 10, \"callbacks\": null, \"classes_\": [0.0, 1.0], \"n_classes_\": 2, \"evals_result_\": {\"validation_0\": {\"error\": [0.21278140885984023, 0.2093923989348826, 0.20697167755991286, 0.2120551924473493, 0.21060275962236746, 0.2120551924473493, 0.21060275962236746, 0.21060275962236746, 0.20915032679738563, 0.2084241103848947, 0.20987654320987653, 0.20866618252239166]}, \"validation_1\": {\"error\": [0.24491771539206195, 0.24104549854791868, 0.24878993223620524, 0.24491771539206195, 0.24394966118102615, 0.24491771539206195, 0.24782187802516942, 0.2536302032913843, 0.24491771539206195, 0.25459825750242016, 0.25459825750242016, 0.2536302032913843]}}, \"_estimator_type\": \"classifier\"}"},"feature_names":[],"feature_types":[],"gradient_booster":{"model":{"gbtree_model_param":{"num_parallel_tree":"1","num_trees":"12","size_leaf_vector":"0"},"tree_info":[0,0,0,0,0,0,0,0,0,0,0,0],"trees":[{"base_weights":[1.11729145E-1,-1.0750141E0,1.0008453E0,-1.436E0,-6.048906E-1,2.8292683E-1,1.3780645E0,-1.5054705E0,-6.666667E-1,-8.214286E-1,-4.3595505E-1,1.0351967E-1,5.3372437E-1,1.04E0,1.6313993E0,-1.679702E0,-1.2440945E0,-1.0638298E0,-2.1276596E-1,5E-1,-8.433735E-1,-1.0909091E-1,-7.423581E-1,1.7117117E-1,-6.0465115E-1,1.3333334E-1,6.3703704E-1,1.0699089E0,-9.52381E-2,8.695652E-1,1.6654719E0,-1.7088122E0,-5.263158E-1,-6E-1,-1.3476923E0,-1.2592592E0,-6.666667E-1,1.1111112E0,-4.7619048E-1,-8.819876E-1,2.857143E-1,7.2727275E-1,-1.980198E-1,-8.374384E-1,-0E0,1.0628019E-1,9.411765E-1,-8.695652E-2,-1E0,4.2857143E-1,-6.086956E-1,1.4285715E0,5.846154E-1,7.631579E-1,1.1529412E0,6.666667E-1,-5E-1,1.1E0,-4E-1,6.666667E-1,1.6792223E0,-1.7333333E0,-5E-1,5E-1,-9.3333334E-1,-9.3877554E-1,6.666667E-1,-8.679245E-1,-1.4202899E0,-4.6153846E-1,-1.5555556E0,5E-1,-1E0,-7.027027E-1,6.666667E-1,-3.859649E-1,-9.739777E-1,8E-1,-5E-1,1.1111112E0,-5E-1,-2.9834256E-1,5.6E-1,-8.6868685E-1,2.2222222E-1,-3.6363637E-1,6.666667E-1,-5.970149E-2,4E-1,1.5555556E0,2E-1,-6.666667E-1,1.1111112E0,-1.4285715E0,-2.857143E-1,-6.666667E-1,7.5555557E-1,-9.3333334E-1,-0E0,-3.3333334E-1,6.1904764E-1,8.29932E-1,-6.666667E-1,-5E-1,1.1699605E0,-1E0,5E-1,3.3333334E-1,1.25E0,1.1428572E0,-5E-1,1.3939394E0,1.723741E0,-1.7391304E0,-5E-1,4E-1,-1.2E0,-2.2222222E-1,-1.2E0,-1.2820513E0,2.857143E-1,1.2727273E0,-5E-1,-1.0204082E0,5E-1,-1.4615384E0,-6E-1,-1.1111112E0,5E-1,-0E0,-1.25E0,-0E0,-1.2380953E0,-1.3333334E0,4.6511628E-2,-6.5625E-1,-1.2275862E0,-0E0,1.4285715E0,-4.8739496E-1,6.0606062E-2,1.3333334E0,-1.1764706E-1,-9.4382024E-1,-1.6666667E-1,-9.0909094E-1,1.3333334E-1,1E0,-0E0,1.9565217E-1,-5.9090906E-1,1.904762E-1,1.2857143E0,-2.857143E-1,8E-1,-1.5384616E-1,-1.1111112E0,-1E0,4E-1,-1.1111112E0,-0E0,1.4285715E0,4E-1,-0E0,-1.2727273E0,5E-1,-5E-1,-5E-1,-0E0,1.2E0,5.4545456E-1,-1.8181819E-1,8.857143E-1,8.214286E-1,1.2562814E0,1E0,-5E-1,1.8181819E-1,1.52E0,-0E0,1.4375E0,1.7279305E0,5E-1,-1.7450199E0,-5E-1,-5E-1,8E-1,-1.2E0,-6.086956E-1,-1.04E0,-1.5327103E0,2.2222222E-1,-9.3333334E-1,-5.714286E-1,8E-1,6.666667E-1,-3.448276E-1,-8.5714287E-1,-1.4634146E-1,-1.2941177E0,-1.5384616E-1,-1.5384616E-1,-1.0222223E0,8.5714287E-1,-2.857143E-1,-8E-1,5.4545456E-1,-7.5555557E-1,-1.4042553E0,1E0,-6E-1,-1.8181819E-1,5E-1,3.4210527E-1,-4.4444445E-1,-8.852459E-1,6.451613E-2,2.6229507E-1,-1E0,-6.666667E-1,2.2222222E-1,5E-1,-6.666667E-1,-8.695652E-2,1E0,-0E0,1.5789474E0,-3.1578946E-1,7.0050764E-1,-2.2222222E-1,9.3333334E-1,9.9029124E-1,-7.692308E-1,1.4514285E0,1.0837004E0,1.4754099E0,4E-1,-1.3333334E-1,-1E0,-1.2380953E0,-0E0,-1.2727273E0,-0E0,2.2222222E-1,-1.1111112E0,1E0,-0E0,-8.888889E-1,4E-1,-9.6103895E-1,-2.2222222E-1,2.0689656E-1,-7.5E-1,-1.3650794E0,-2.857143E-1,-5E-1,2.2222222E-1,-4.347826E-1,2.2222222E-1,-4.347826E-1,-1.3846154E0,1.0588236E0,-0E0,-7.2E-1,1.4285715E-1,-9.433962E-1,-6.0606062E-2,-1.5348837E0,-0E0,-1E0,5E-1,1.904762E-1,9.3333334E-1,-1.0769231E0,-7.4074075E-2,-1.9354838E-1,-1.4117647E0,3.7037036E-1,-1E0,1.5929204E-1,1.0769231E0,5.714286E-1,-7.692308E-1,-0E0,1.3333334E0,-1E0,3.6363637E-1,1.2380953E0,5.408805E-1,1.2E0,6.835443E-1,1.0612245E0,-2.2222222E-1,-1.1111112E0,-0E0,1.5180722E0,1.5384616E-1,-5E-1,1.1210762E0,6.666667E-1,1.5555556E0,-1E0,5.4545456E-1,-1.375E0,-5.714286E-1,5E-1,-5E-1,-1.8181819E-1,-1.2727273E0,1.1111112E0,-4E-1,-1.1333333E0,-2.857143E-1,2.857143E-1,-1E0,-1.8181819E-1,9.0909094E-1,-0E0,-1E0,-2.2222222E-1,-1.4049587E0,2.2222222E-1,-6.666667E-1,-1.1111112E0,4.347826E-1,1.1428572E0,-3.0769232E-1,-9.4736844E-1,1E0,-2.2222222E-1,-1.6190476E0,4E-1,1.2727273E0,-1.1764706E-1,-1.3333334E0,-1E0,5E-1,-1.0537634E0,-1.1764706E-1,3.0769232E-1,-9.0909094E-1,-1.3333334E0,-0E0,3.846154E-1,-6.1538464E-1,1.2941177E0,3.529412E-1,9.0909094E-1,-6E-1,-7.5E-1,3.1578946E-1,-1.5714285E0,-4E-1,-5.4545456E-1,8E-1,3.030303E-1,-6.666667E-1,-0E0,8E-1,-1.8181819E-1,-1.3846154E0,1E0,-2.857143E-1,1.5294118E0,-0E0,-9.3333334E-1,6.756757E-1,1.2857143E0,-0E0,1.6216215E-1,1.0434783E0,5.555556E-1,1.2727273E0,2.2222222E-1,1.552795E0,-2.2222222E-1,5E-1,6.0465115E-1,1.2173913E0,1.1428572E0,-5E-1,-0E0,-8E-1,-6.666667E-1,-1.255814E0,4E-1,-1.2E0,-6.666667E-1,1.1111112E0,4E-1,-9.0909094E-1,-1.4E0,-1.8181819E-1,8.5714287E-1,-1.5384616E-1,8.5714287E-1,-1.25E0,-0E0,-1.2E0,4E-1,-5.4545456E-1,8E-1,-5E-1,-6.909091E-1,-1.4285715E0,3.3333334E-1,-6.666667E-1,-3.529412E-1,1.0769231E0,1.4285715E-1,1.1666666E0,-1.1428572E0,-0E0,-8E-1,1.2727273E0,-8.5714287E-1,-0E0,-0E0,-1.2E0,-3.3333334E-1,9.0909094E-1,1.1428572E0,-0E0,1.1764706E-1,1.1111112E0,-1.5384616E-1,-1.1111112E0,2.2222222E-1,-6.666667E-1,5.4545456E-1,1.7037038E0,5E-1,-5E-1,-0E0,-1.2727273E0,5.043478E-1,1.1351352E0,1.36E0,4E-1,6E-1,-2.857143E-1,-0E0,1.2631578E0,-5.882353E-1,1.3043479E0,1.4893616E0,6.086956E-1,1.25E0,1.9354838E-1,5.4545456E-1,1.3290323E0,-0E0,-1.0769231E0,-4E-1,-1.3513514E0,8E-1,-2.2222222E-1,-5E-1,9.0909094E-1,-6.666667E-1,5E-1,2.2222222E-1,1.1111112E0,-0E0,1.1428572E0,-2.857143E-1,-1.1666666E0,-7.368421E-1,-1.7037038E0,5E-1,-0E0,5E-1,-7.692308E-1,3.6363637E-1,-5.4545456E-1,1.5294118E0,1.8181819E-1,-1E0,6.666667E-1,-0E0,-1.2E0,5E-1,-1E0,1.0769231E0,-5.263158E-2,1.4285715E0,-0E0,5E-1,-6.666667E-1,6.666667E-1,-6.896552E-2,1.4285715E0,1.5384616E-1,9.3333334E-1,-2.2222222E-1,-1.2E0,4E-1,5E-1,-5E-1,1.5E0,6.666667E-1,-1.0769231E0,5E-1,9.4736844E-1,-5E-1,-4E-1,6E-1,-5E-1,7.586207E-1,1.3642384E0,-0E0,-5E-1,5E-1,-6.086956E-1,2.5E-1,-4E-1,-1.3333334E0,2.2222222E-1,-1.1428572E0,-1.1111112E0,-0E0,-0E0,1.0909091E0,-9.3333334E-1,1.8181819E-1,1E0,-0E0,1.5873016E-1,-8.235294E-1,1.04E0,1.8181819E-1,-1.2E0,8.888889E-1,4E-1,1.6363636E0,6.666667E-1,-5E-1,8E-1,-2.2222222E-1,-2.2222222E-1,1.0769231E0,-0E0,1.2E0,5E-1,-9.0909094E-1,1.1428572E0,-4E-1,2.5E-1,1.0588236E0,5E-1,-9.4736844E-1,-1.8181819E-1,6.666667E-1,6.666667E-1,-3.529412E-1,-0E0,1.3333334E0,-0E0,-1.2727273E0,-1.2244898E-1,8.888889E-1,-0E0,-1.0769231E0,2.5E-1,1.2631578E0,-4.6153846E-1,9.0909094E-1,1.3846154E0,-2.2222222E-1,9.0909094E-1,-6.666667E-1,-0E0,1.3846154E0,-3.3333334E-1,-1.2727273E0,1.1111112E0,1.5384616E-1,4E-1,-5.714286E-1,-8.235294E-1,2.2222222E-1,-0E0,1.1428572E0,-3.3333334E-1,1E0,1.3939394E0,2.2222222E-1,-9.0909094E-1,1E0,-2.2222222E-1,1.2941177E0,-0E0,-5E-1,-5E-1,6.666667E-1,1.8181819E-1,-8.5714287E-1,-1.2E0,-1.8181819E-1,8.888889E-1,-3.6363637E-1,-0E0,-5E-1,-1.5384616E-1,-1.3846154E0,-1.0588236E0,-0E0,1.1428572E0,-0E0,-9.3333334E-1,5.4545456E-1,2.2222222E-1,-5E-1,-0E0,-1.3846154E0],"categories":[],"categories_nodes":[],"categories_segments":[],"categories_sizes":[],"default_left":[1,1,1,1,1,1,1,1,1,1,1,1,1,1,1,1,1,1,1,1,1,1,1,1,1,1,1,1,1,1,1,1,1,1,1,1,1,1,1,1,1,1,1,1,1,1,1,1,1,1,1,0,1,1,1,1,1,1,1,1,1,1,1,1,1,1,1,1,1,1,1,1,1,1,1,1,1,1,1,1,1,1,1,1,1,1,1,1,1,1,1,1,1,1,1,1,1,1,1,1,1,1,1,0,1,1,1,1,1,1,1,1,1,1,1,1,1,1,1,1,1,1,1,1,1,1,1,1,1,1,1,1,1,1,1,1,1,1,1,1,1,1,1,1,1,1,1,1,1,1,1,1,1,1,1,1,1,1,1,1,1,1,1,1,1,1,1,1,1,1,1,1,1,1,1,1,1,1,1,1,1,1,1,1,1,1,1,1,1,1,1,1,1,1,1,1,1,1,1,1,1,1,1,1,1,1,1,1,1,1,1,1,1,1,1,1,1,1,1,1,1,1,1,1,1,1,1,1,1,1,1,1,1,1,1,1,1,1,1,1,1,1,1,1,1,1,1,1,1,1,1,1,1,1,1,1,1,1,1,1,1,1,1,1,1,1,1,1,1,1,1,1,1,1,1,1,1,1,1,1,1,1,1,1,1,1,1,1,1,1,1,1,0,1,1,1,1,1,1,1,1,1,1,1,1,1,1,1,1,1,1,1,1,1,1,1,1,1,1,1,1,1,1,1,1,0,1,1,1,1,1,1,1,1,1,1,1,1,1,1,1,1,1,1,1,1,1,1,1,1,1,1,1,1,1,1,1,1,1,1,1,1,1,1,1,1,1,1,1,1,1,1,1,1,1,1,1,1,1,1,1,1,1,1,1,1,1,1,1,1,1,1,1,1,1,1,0,1,1,1,1,1,1,1,1,1,1,1,1,1,1,1,1,1,1,1,1,1,1,1,1,1,1,1,1,1,1,1,1,1,1,1,1,1,1,1,1,1,1,1,1,1,1,1,0,1,1,1,1,1,1,1,1,1,1,1,1,1,1,1,1,1,1,1,1,1,1,1,1,1,1,1,1,1,1,1,1,1,1,1,1,1,1,1,1,1,1,1,1,1,1,1,1,1,1,1,1,1,1,1,1,1,1,1,1,1,1,1,1,1,1,1,1,1,1,1,1,1,1,1,1,1,1,1,1,1,1,1,1,1,1,0,1,1,1,1,1,1,1,1,1,1,1,1,1,1,1,1,1,1,1,1,1,1,1,1,1,1,1,1,1,1,1,1,1,1,1,1,1,1,1,1,1,1,1,1,1,1,1,1,1,1,1,1,1,1,1,1,1,1,1,1,1,1,1,1,1,1,1,1,1,1,1,1,1,1,1,1,1,1,1,1,1,1,1],"id":0,"left_children":[1,3,5,7,9,11,13,15,-1,-1,21,23,25,27,-1,-1,33,-1,-1,-1,-1,41,-1,45,-1,-1,51,53,-1,-1,-1,-1,-1,65,-1,-1,-1,-1,-1,-1,-1,-1,81,-1,-1,87,-1,-1,-1,-1,-1,-1,99,-1,103,-1,-1,-1,-1,-1,-1,-1,-1,-1,-1,-1,-1,-1,-1,-1,-1,-1,-1,-1,-1,-1,-1,-1,-1,-1,-1,139,-1,-1,-1,-1,-1,149,-1,-1,-1,-1,-1,-1,-1,-1,-1,-1,-1,-1,169,-1,-1,-1,173,-1,-1,-1,-1,-1,-1,-1,-1,-1,-1,-1,-1,-1,-1,-1,-1,-1,-1,-1,-1,-1,-1,-1,-1,-1,-1,-1,-1,-1,-1,-1,-1,-1,-1,201,-1,-1,-1,-1,-1,-1,-1,-1,-1,-1,-1,-1,-1,-1,-1,-1,-1,-1,-1,-1,-1,-1,-1,-1,-1,-1,-1,-1,-1,-1,227,-1,-1,231,-1,-1,-1,-1,-1,-1,-1,-1,-1,-1,-1,-1,-1,-1,-1,-1,-1,-1,-1,-1,-1,-1,-1,-1,-1,-1,-1,257,-1,-1,-1,-1,-1,-1,-1,-1,-1,-1,-1,-1,-1,-1,-1,-1,-1,-1,-1,-1,-1,-1,-1,-1,-1,-1,287,-1,-1,291,-1,-1,-1,-1,-1,-1,-1,-1,-1,-1,-1,-1,-1,-1,-1,-1,-1,-1,-1,-1,-1,-1,-1,-1,-1,323,325,-1,-1,-1,-1,-1,-1,-1,-1,-1,-1,-1,-1,-1,-1,-1,-1,-1,-1,-1,-1,-1,-1,-1,-1,-1,-1,-1,-1,-1,365,-1,-1,371,-1,-1,-1,-1,-1,-1,-1,-1,-1,-1,-1,-1,-1,-1,-1,-1,-1,-1,-1,-1,-1,-1,-1,-1,-1,-1,-1,-1,-1,-1,-1,-1,-1,-1,395,-1,-1,-1,-1,-1,-1,-1,-1,-1,-1,-1,-1,-1,-1,-1,-1,-1,-1,-1,-1,-1,-1,-1,-1,-1,-1,-1,-1,-1,-1,-1,-1,-1,-1,-1,-1,-1,-1,-1,435,-1,-1,-1,-1,443,-1,-1,-1,-1,-1,-1,-1,-1,-1,-1,-1,-1,-1,-1,-1,-1,-1,-1,-1,-1,-1,-1,-1,-1,-1,-1,-1,-1,-1,-1,-1,-1,-1,-1,-1,-1,-1,-1,-1,-1,-1,-1,-1,-1,-1,-1,-1,-1,-1,-1,-1,-1,-1,-1,-1,-1,-1,-1,-1,-1,-1,-1,-1,489,-1,-1,-1,-1,-1,-1,-1,-1,-1,-1,-1,-1,-1,-1,-1,-1,-1,-1,-1,-1,-1,-1,-1,-1,-1,-1,-1,-1,-1,-1,-1,-1,-1,-1,-1,-1,-1,-1,-1,-1,-1,-1,-1,-1,-1,-1,-1,-1,-1,-1,-1,-1,-1,-1,531,-1,-1,-1,-1,-1,-1,-1,-1,-1,-1,-1,-1,-1,-1,-1,-1,-1,-1,-1,-1,-1,-1,-1,-1,-1,-1,-1,-1,-1,-1,-1,-1,-1,-1,-1,-1,-1,-1,-1,-1,-1,-1,-1,-1,-1,-1,-1,-1,-1,-1,-1,-1,-1,-1,-1,-1,-1,-1,-1,-1,-1,-1,-1,-1,-1,-1,-1,-1,-1,-1,-1,-1,-1,-1,-1,-1,-1,-1,-1,-1,-1,-1,-1,-1,-1,-1,-1,-1,-1,-1,-1,-1,-1,-1,-1,-1,-1,-1,-1,-1,-1,-1,-1,-1,-1,-1,-1,-1,-1,-1,-1,-1,-1,-1,-1,-1,-1,-1,-1,-1,-1,-1,-1,-1],"loss_changes":[1.09184E3,7.435443E1,1.5979578E2,1.2357849E1,6.7477417E0,9.168697E0,3.1490173E1,8.316162E0,3.8297873E0,2.8575745E0,1.10609455E1,5.888489E0,3.4414692E0,5.8315735E0,4.2560425E0,3.6080933E0,5.547104E0,7.249832E-2,4.6268153E0,0E0,3.8706856E0,4.2347436E0,4.0409145E0,5.4462414E0,2.113246E0,4.36853E0,1.9656487E0,3.309967E0,1.9523809E0,3.804348E0,1.7543335E0,3.0015564E0,2.4508772E0,7.0625854E0,1.5972137E0,8.774929E-1,2.8333333E0,0E0,3.186615E0,3.2972336E0,1.8142856E0,3.1464643E0,4.0074263E0,1.8735123E0,2.060606E0,5.0697236E0,3.5594773E0,4.734299E0,1.4285712E0,5.517461E0,1.1362319E0,0E0,2.2608051E0,4.181347E0,4.1717987E0,0E0,2.5E0,7.3333263E-1,0E0,3.0714288E0,2.1032715E-1,4.2022705E-2,3E0,0E0,4.4444442E-1,5.515437E0,3.287879E0,3.2739697E0,1.4577637E0,2.58547E0,0E0,0E0,1.25E0,3.4800515E0,0E0,5.9004483E0,4.6132965E0,0E0,0E0,1.5873017E0,0E0,3.1002088E0,3.432157E0,2.4535828E0,0E0,1.6121211E0,6.666666E-1,9.203882E0,6.714286E0,0E0,1.6857142E0,8.547008E-1,0E0,0E0,2.1142857E0,1.111111E0,2.120635E0,1.1878788E0,1E0,1.6666666E-1,2.0389614E0,2.2351284E0,0E0,0E0,2.77388E0,0E0,0E0,2.1666667E0,2.0309086E0,0E0,0E0,2.0037842E0,2.6855469E-2,5.065918E-2,0E0,0E0,0E0,0E0,0E0,0E0,1.8142856E0,0E0,0E0,1.7533302E-1,0E0,3.560791E-1,1.5777779E0,0E0,0E0,0E0,0E0,2.7428572E0,0E0,0E0,2.838813E0,3.1525478E0,2.3905144E0,0E0,0E0,5.1498666E0,4.796537E0,0E0,2.3593583E0,2.7964325E0,3.6333332E0,0E0,5.2424246E-1,0E0,0E0,4.464277E0,4.30126E0,2.9555035E0,0E0,8.253969E-1,0E0,1.4230769E0,0E0,0E0,0E0,0E0,0E0,0E0,2.6434784E0,0E0,0E0,0E0,0E0,0E0,0E0,2.842105E0,7.9330635E0,0E0,2.0539665E0,8.282648E0,1.778122E0,0E0,0E0,0E0,0E0,0E0,6.684418E-1,0E0,0E0,0E0,0E0,0E0,0E0,0E0,9.3623185E-1,2.5752373E0,0E0,0E0,1.1878788E0,1.7460316E0,0E0,1E0,3.2934868E0,1.287157E0,2.3408325E0,2.0429497E0,5.3418803E-1,2.1568189E0,1.7929392E0,9.0756273E-1,2.382857E0,0E0,0E0,4.348543E0,2.155367E0,0E0,2.7E0,0E0,0E0,3.2288218E0,2.02849E0,5.2806807E0,2.893668E0,2.3876843E0,0E0,0E0,0E0,0E0,0E0,3.022456E0,1.3333335E0,0E0,0E0,4.7799044E0,3.556656E0,0E0,1.4278488E0,2.4505196E0,8.547008E-1,3.549759E0,3.919693E0,9.3989563E-1,0E0,2.7515152E0,0E0,1.7261887E-1,1E0,0E0,0E0,0E0,0E0,0E0,0E0,9.898989E-1,2.5777779E0,1.9160175E0,2.063492E0,2.1442008E0,7.5E-1,1.1234398E0,8.253969E-1,0E0,0E0,7.246377E0,4.7423687E0,5.1762013E0,1.4114771E0,8.9839935E-2,0E0,2.152157E0,3.357143E0,2.2911205E0,2.8578088E0,0E0,0E0,1.3333335E0,0E0,5.1648355E0,1.1137257E0,0E0,4.0356903E0,2.4333618E0,7.4453735E-1,3.0922558E0,0E0,3.555913E0,0E0,4.5714283E-1,0E0,0E0,0E0,1.3216782E0,2.5584416E0,3.787115E0,8.529627E0,1.5428562E0,3.5371342E0,1.9132137E0,0E0,0E0,0E0,1.5222473E0,5.3418803E-1,0E0,2.0368729E0,3.0714288E0,0E0,0E0,0E0,0E0,4.5714283E-1,0E0,0E0,0E0,0E0,0E0,0E0,2.015686E-2,3.7714283E0,3.4920633E0,0E0,2.6909091E0,0E0,0E0,0E0,0E0,0E0,0E0,0E0,1.5575762E0,1.5613952E0,0E0,8.206043E0,1.1368423E0,0E0,0E0,0E0,0E0,0E0,1.1593583E0,0E0,0E0,2.2E0,2.175005E0,1.2745098E0,3.683258E0,0E0,0E0,0E0,4.749085E0,2.1098902E0,0E0,5.5251336E0,0E0,7.714286E-1,1.3499999E0,2.1323762E0,0E0,0E0,0E0,1.3714287E0,3.5769455E0,8.547008E-1,0E0,0E0,0E0,0E0,0E0,8.253969E-1,5.284214E-1,1E0,1.1878788E0,2.3400707E0,3.7714386E-1,0E0,1.9853282E0,2.636156E0,8.475419E0,1.4669914E0,0E0,0E0,0E0,0E0,2.6100903E0,2.725792E0,0E0,0E0,0E0,0E0,1.4358976E0,3.384018E-1,1.1111112E0,0E0,0E0,0E0,2.172727E0,0E0,0E0,0E0,0E0,1.4230769E0,3.174603E-1,0E0,0E0,0E0,0E0,0E0,1.3714287E0,0E0,2.3173165E0,7.429676E-1,1.6666666E-1,0E0,1.8936651E0,0E0,3.3896105E0,1.8654184E0,0E0,3.3333335E0,0E0,0E0,1.0285714E0,0E0,0E0,0E0,2.1666667E0,0E0,0E0,0E0,3.5277448E0,1.5873017E0,1.4230769E0,0E0,0E0,0E0,0E0,0E0,0E0,0E0,0E0,0E0,2.7214394E0,2.443719E0,0E0,0E0,1.5777779E0,3.7714283E0,1E0,3.421049E-1,2.7986426E0,0E0,0E0,2.632723E0,0E0,2.1096776E0,2.2178683E0,1.813118E0,1E0,0E0,0E0,0E0,0E0,0E0,0E0,0E0,0E0,0E0,0E0,0E0,0E0,0E0,1.666149E0,2.3333263E-1,2.1035926E0,0E0,0E0,0E0,0E0,8.547008E-1,4.363636E0,1.721212E0,0E0,0E0,0E0,6.666666E-1,0E0,0E0,0E0,0E0,0E0,3.2265465E0,0E0,0E0,0E0,0E0,3.8836365E0,8.921073E0,8.4155846E-1,1.4230769E0,0E0,0E0,0E0,1.1111112E0,0E0,0E0,0E0,1.880342E0,0E0,0E0,1.1368423E0,0E0,2.172727E0,3.171429E0,0E0,8.4229183E-1,0E0,0E0,0E0,0E0,2.632723E0,8.409091E-1,0E0,0E0,0E0,0E0,0E0,0E0,3.0588236E0,1.4545455E0,1.1878788E0,0E0,0E0,0E0,3.3424037E0,8.86878E-1,1.8878946E0,5.5664334E0,0E0,2.7863247E0,0E0,0E0,0E0,0E0,0E0,0E0,0E0,0E0,0E0,0E0,0E0,0E0,0E0,0E0,3.0227273E0,1.4660635E0,0E0,5.2472115E-1,0E0,0E0,8.547008E-1,1.6268909E0,0E0,0E0,0E0,0E0,3.1431239E0,1.0158732E0,0E0,0E0,2.0833333E0,9.8351955E-1,5.160839E0,2.6833038E0,0E0,0E0,0E0,0E0,0E0,0E0,1.6666666E-1,0E0,0E0,1.4230769E0,0E0,1.6623375E0,8.085561E-1,3.838384E0,0E0,0E0,1.6666666E-1,0E0,0E0,0E0,1.7622375E0,0E0,0E0,0E0,0E0,0E0,0E0,0E0,0E0,9.0756273E-1,0E0,0E0,1.0158732E0,3.3575757E0,0E0,0E0,5.3418803E-1,0E0,1.4660635E0,0E0,0E0,0E0,0E0,0E0,0E0,0E0,0E0,0E0],"parents":[2147483647,0,0,1,1,2,2,3,3,4,4,5,5,6,6,7,7,8,8,9,9,10,10,11,11,12,12,13,13,14,14,15,15,16,16,17,17,18,18,20,20,21,21,22,22,23,23,24,24,25,25,26,26,27,27,28,28,29,29,30,30,31,31,32,32,33,33,34,34,35,35,36,36,38,38,39,39,40,40,41,41,42,42,43,43,44,44,45,45,46,46,47,47,48,48,49,49,50,50,52,52,53,53,54,54,56,56,57,57,59,59,60,60,61,61,62,62,64,64,65,65,66,66,67,67,68,68,69,69,72,72,73,73,75,75,76,76,79,79,81,81,82,82,83,83,85,85,86,86,87,87,88,88,90,90,91,91,94,94,95,95,96,96,97,97,98,98,99,99,100,100,101,101,104,104,107,107,108,108,111,111,112,112,113,113,120,120,123,123,125,125,126,126,131,131,134,134,135,135,136,136,139,139,140,140,142,142,143,143,144,144,146,146,149,149,150,150,151,151,153,153,155,155,162,162,169,169,170,170,172,172,173,173,174,174,180,180,188,188,189,189,192,192,193,193,195,195,196,196,197,197,198,198,199,199,200,200,201,201,202,202,203,203,204,204,207,207,208,208,210,210,213,213,214,214,215,215,216,216,217,217,223,223,224,224,227,227,228,228,230,230,231,231,232,232,233,233,234,234,235,235,237,237,239,239,240,240,247,247,248,248,249,249,250,250,251,251,252,252,253,253,254,254,257,257,258,258,259,259,260,260,261,261,263,263,264,264,265,265,266,266,269,269,271,271,272,272,274,274,275,275,276,276,277,277,279,279,281,281,285,285,286,286,287,287,288,288,289,289,290,290,291,291,295,295,296,296,298,298,299,299,304,304,311,311,312,312,313,313,315,315,323,323,324,324,326,326,327,327,333,333,336,336,337,337,338,338,339,339,343,343,344,344,346,346,348,348,349,349,350,350,354,354,355,355,356,356,362,362,363,363,364,364,365,365,366,366,367,367,369,369,370,370,371,371,372,372,377,377,378,378,383,383,384,384,385,385,389,389,394,394,395,395,401,401,403,403,404,404,405,405,407,407,409,409,410,410,412,412,415,415,419,419,423,423,424,424,425,425,435,435,436,436,439,439,440,440,441,441,442,442,443,443,446,446,448,448,449,449,450,450,451,451,465,465,466,466,467,467,472,472,473,473,474,474,478,478,484,484,489,489,490,490,491,491,492,492,496,496,500,500,503,503,505,505,506,506,508,508,513,513,514,514,521,521,522,522,523,523,527,527,528,528,529,529,530,530,532,532,547,547,548,548,550,550,553,553,554,554,559,559,560,560,563,563,564,564,565,565,566,566,573,573,576,576,578,578,579,579,580,580,583,583,587,587,596,596,599,599,600,600,603,603,605,605],"right_children":[2,4,6,8,10,12,14,16,-1,-1,22,24,26,28,-1,-1,34,-1,-1,-1,-1,42,-1,46,-1,-1,52,54,-1,-1,-1,-1,-1,66,-1,-1,-1,-1,-1,-1,-1,-1,82,-1,-1,88,-1,-1,-1,-1,-1,-1,100,-1,104,-1,-1,-1,-1,-1,-1,-1,-1,-1,-1,-1,-1,-1,-1,-1,-1,-1,-1,-1,-1,-1,-1,-1,-1,-1,-1,140,-1,-1,-1,-1,-1,150,-1,-1,-1,-1,-1,-1,-1,-1,-1,-1,-1,-1,170,-1,-1,-1,174,-1,-1,-1,-1,-1,-1,-1,-1,-1,-1,-1,-1,-1,-1,-1,-1,-1,-1,-1,-1,-1,-1,-1,-1,-1,-1,-1,-1,-1,-1,-1,-1,-1,-1,202,-1,-1,-1,-1,-1,-1,-1,-1,-1,-1,-1,-1,-1,-1,-1,-1,-1,-1,-1,-1,-1,-1,-1,-1,-1,-1,-1,-1,-1,-1,228,-1,-1,232,-1,-1,-1,-1,-1,-1,-1,-1,-1,-1,-1,-1,-1,-1,-1,-1,-1,-1,-1,-1,-1,-1,-1,-1,-1,-1,-1,258,-1,-1,-1,-1,-1,-1,-1,-1,-1,-1,-1,-1,-1,-1,-1,-1,-1,-1,-1,-1,-1,-1,-1,-1,-1,-1,288,-1,-1,292,-1,-1,-1,-1,-1,-1,-1,-1,-1,-1,-1,-1,-1,-1,-1,-1,-1,-1,-1,-1,-1,-1,-1,-1,-1,324,326,-1,-1,-1,-1,-1,-1,-1,-1,-1,-1,-1,-1,-1,-1,-1,-1,-1,-1,-1,-1,-1,-1,-1,-1,-1,-1,-1,-1,-1,366,-1,-1,372,-1,-1,-1,-1,-1,-1,-1,-1,-1,-1,-1,-1,-1,-1,-1,-1,-1,-1,-1,-1,-1,-1,-1,-1,-1,-1,-1,-1,-1,-1,-1,-1,-1,-1,396,-1,-1,-1,-1,-1,-1,-1,-1,-1,-1,-1,-1,-1,-1,-1,-1,-1,-1,-1,-1,-1,-1,-1,-1,-1,-1,-1,-1,-1,-1,-1,-1,-1,-1,-1,-1,-1,-1,-1,436,-1,-1,-1,-1,444,-1,-1,-1,-1,-1,-1,-1,-1,-1,-1,-1,-1,-1,-1,-1,-1,-1,-1,-1,-1,-1,-1,-1,-1,-1,-1,-1,-1,-1,-1,-1,-1,-1,-1,-1,-1,-1,-1,-1,-1,-1,-1,-1,-1,-1,-1,-1,-1,-1,-1,-1,-1,-1,-1,-1,-1,-1,-1,-1,-1,-1,-1,-1,490,-1,-1,-1,-1,-1,-1,-1,-1,-1,-1,-1,-1,-1,-1,-1,-1,-1,-1,-1,-1,-1,-1,-1,-1,-1,-1,-1,-1,-1,-1,-1,-1,-1,-1,-1,-1,-1,-1,-1,-1,-1,-1,-1,-1,-1,-1,-1,-1,-1,-1,-1,-1,-1,-1,532,-1,-1,-1,-1,-1,-1,-1,-1,-1,-1,-1,-1,-1,-1,-1,-1,-1,-1,-1,-1,-1,-1,-1,-1,-1,-1,-1,-1,-1,-1,-1,-1,-1,-1,-1,-1,-1,-1,-1,-1,-1,-1,-1,-1,-1,-1,-1,-1,-1,-1,-1,-1,-1,-1,-1,-1,-1,-1,-1,-1,-1,-1,-1,-1,-1,-1,-1,-1,-1,-1,-1,-1,-1,-1,-1,-1,-1,-1,-1,-1,-1,-1,-1,-1,-1,-1,-1,-1,-1,-1,-1,-1,-1,-1,-1,-1,-1,-1,-1,-1,-1,-1,-1,-1,-1,-1,-1,-1,-1,-1,-1,-1,-1,-1,-1,-1,-1,-1,-1,-1,-1,-1,-1,-1],"split_conditions":[6.584451E-1,6.305326E-1,6.8371385E-1,1.657943E-1,6.425754E-1,7.113666E-1,7.088749E-1,5.500239E-1,-4.6666667E-2,-5.75E-2,3.1725952E-1,6.6822875E-1,5.34518E-1,5.641404E-1,1.1419795E-1,-1.1757915E-1,5.944053E-1,-7.446808E-2,-1.48936175E-2,3.5E-2,-5.9036143E-2,5.206716E-1,-5.1965065E-2,6.3834083E-1,-4.2325582E-2,9.333334E-3,5.350386E-1,5.3769565E-1,-6.666667E-3,6.0869563E-2,1.16583034E-1,-1.1961686E-1,-3.6842108E-2,5.9148157E-1,-9.4338454E-2,-8.814815E-2,-4.6666667E-2,7.777778E-2,-3.3333335E-2,-6.173913E-2,2.0000001E-2,5.090909E-2,5.339654E-1,-5.8620688E-2,-0E0,5.146724E-1,6.5882355E-2,-6.0869567E-3,-7E-2,3.0000001E-2,-4.2608693E-2,1E-1,6.6374004E-1,5.3421054E-2,5.829973E-1,4.6666667E-2,-3.5E-2,7.7E-2,-2.8E-2,4.6666667E-2,1.1754557E-1,-1.2133334E-1,-3.5E-2,3.5E-2,-6.533334E-2,-6.5714285E-2,4.6666667E-2,-6.0754716E-2,-9.9420294E-2,-3.2307692E-2,-1.08888894E-1,3.5E-2,-7E-2,-4.9189188E-2,4.6666667E-2,-2.7017543E-2,-6.817844E-2,5.6E-2,-3.5E-2,7.777778E-2,-3.5E-2,2.1060984E-1,3.92E-2,-6.080808E-2,1.5555556E-2,-2.5454545E-2,4.6666667E-2,4.0866536E-1,2.8E-2,1.08888894E-1,1.4E-2,-4.6666667E-2,7.777778E-2,-1E-1,-2.0000001E-2,-4.6666667E-2,5.288889E-2,-6.533334E-2,-0E0,-2.3333333E-2,5.9591734E-1,5.809524E-2,-4.6666667E-2,-3.5E-2,7.7537125E-1,-7E-2,3.5E-2,2.3333333E-2,8.75E-2,8.0000006E-2,-3.5E-2,9.7575754E-2,1.2066188E-1,-1.2173913E-1,-3.5E-2,2.8E-2,-8.400001E-2,-1.5555556E-2,-8.400001E-2,-8.974359E-2,2.0000001E-2,8.9090906E-2,-3.5E-2,-7.1428575E-2,3.5E-2,-1.0230769E-1,-4.2000003E-2,-7.777778E-2,3.5E-2,-0E0,-8.75E-2,-0E0,-8.666667E-2,-9.3333334E-2,3.2558138E-3,-4.59375E-2,-8.593103E-2,-0E0,1E-1,1.4498404E-1,4.2424244E-3,9.3333334E-2,-8.235294E-3,-6.606742E-2,-1.1666667E-2,-6.363636E-2,9.333334E-3,7E-2,-0E0,1.3695652E-2,-4.1363634E-2,1.3333334E-2,8.9999996E-2,-2.0000001E-2,5.6E-2,-1.0769231E-2,-7.777778E-2,-7E-2,2.8E-2,-7.777778E-2,-0E0,1E-1,2.8E-2,-0E0,-8.9090906E-2,3.5E-2,-3.5E-2,-3.5E-2,-0E0,8.400001E-2,6.0448575E-1,-1.2727273E-2,6.2E-2,7.650771E-1,8.7939695E-2,7E-2,-3.5E-2,1.2727273E-2,1.064E-1,-0E0,1.00625E-1,1.2095514E-1,3.5E-2,-1.221514E-1,-3.5E-2,-3.5E-2,5.6E-2,-8.400001E-2,-4.2608693E-2,-7.2799996E-2,-1.07289724E-1,1.5555556E-2,-6.533334E-2,-4.0000003E-2,5.6E-2,4.6666667E-2,-2.4137931E-2,-6.0000002E-2,-1.0243902E-2,-9.058824E-2,-1.0769231E-2,5.895674E-1,-7.155556E-2,6.0000002E-2,-2.0000001E-2,-5.6E-2,3.818182E-2,-5.288889E-2,-9.829787E-2,7E-2,-4.2000003E-2,-1.2727273E-2,3.5E-2,2.394737E-2,-3.1111112E-2,-6.1967216E-2,4.516129E-3,1.8360654E-2,-7E-2,-4.6666667E-2,1.5555556E-2,3.5E-2,-4.6666667E-2,-6.0869567E-3,7E-2,-0E0,1.1052632E-1,-2.2105262E-2,7.8581315E-1,-1.5555556E-2,6.533334E-2,7.0649904E-1,-5.3846154E-2,1.016E-1,7.585903E-2,1.0327869E-1,2.8E-2,-9.333334E-3,-7E-2,-8.666667E-2,-0E0,-8.9090906E-2,-0E0,1.5555556E-2,-7.777778E-2,7E-2,-0E0,-6.2222224E-2,2.8E-2,-6.727273E-2,-1.5555556E-2,1.4482759E-2,-5.2500002E-2,-9.555556E-2,-2.0000001E-2,-3.5E-2,1.5555556E-2,6.48097E-1,5.289998E-1,-3.0434782E-2,-9.692308E-2,7.411765E-2,-0E0,-5.0400004E-2,1.0000001E-2,-6.603774E-2,-4.2424244E-3,-1.07441865E-1,-0E0,-7E-2,3.5E-2,1.3333334E-2,6.533334E-2,-7.538462E-2,-5.1851855E-3,-1.3548387E-2,-9.882353E-2,2.5925925E-2,-7E-2,1.1150443E-2,7.538462E-2,4.0000003E-2,-5.3846154E-2,-0E0,9.3333334E-2,-7E-2,2.5454545E-2,8.666667E-2,8.0187345E-1,8.400001E-2,4.7848098E-2,5.027944E-1,-1.5555556E-2,-7.777778E-2,-0E0,1.0626506E-1,1.0769231E-2,-3.5E-2,7.8475334E-2,4.6666667E-2,1.08888894E-1,-7E-2,3.818182E-2,-9.625E-2,-4.0000003E-2,3.5E-2,-3.5E-2,-1.2727273E-2,-8.9090906E-2,7.777778E-2,-2.8E-2,-7.9333335E-2,-2.0000001E-2,2.0000001E-2,-7E-2,-1.2727273E-2,6.363636E-2,-0E0,-7E-2,-1.5555556E-2,-9.834711E-2,1.5555556E-2,-4.6666667E-2,-7.777778E-2,3.0434782E-2,8.0000006E-2,6.4579684E-1,-6.631579E-2,7E-2,-1.5555556E-2,-1.1333334E-1,2.8E-2,8.9090906E-2,-8.235294E-3,-9.3333334E-2,-7E-2,3.5E-2,-7.376344E-2,-8.235294E-3,2.1538462E-2,-6.363636E-2,-9.3333334E-2,-0E0,2.6923077E-2,-4.3076925E-2,9.058824E-2,2.4705883E-2,6.363636E-2,-4.2000003E-2,-5.2500002E-2,2.2105262E-2,-1.1E-1,-2.8E-2,-3.818182E-2,5.6E-2,2.1212121E-2,-4.6666667E-2,-0E0,5.6E-2,-1.2727273E-2,-9.692308E-2,7E-2,-2.0000001E-2,1.0705882E-1,-0E0,-6.533334E-2,9.5261955E-1,8.9999996E-2,-0E0,1.1351351E-2,7.304348E-2,9.996138E-1,8.9090906E-2,1.5555556E-2,1.08695656E-1,-1.5555556E-2,3.5E-2,4.2325582E-2,8.521739E-2,8.0000006E-2,-3.5E-2,-0E0,-5.6E-2,-4.6666667E-2,-8.790698E-2,2.8E-2,-8.400001E-2,-4.6666667E-2,7.777778E-2,2.8E-2,-6.363636E-2,-9.8E-2,-1.2727273E-2,6.0000002E-2,-1.0769231E-2,6.0000002E-2,-8.75E-2,-0E0,-8.400001E-2,2.8E-2,-3.818182E-2,5.6E-2,-3.5E-2,-4.8363637E-2,-1E-1,2.3333333E-2,-4.6666667E-2,-2.4705883E-2,7.538462E-2,1.0000001E-2,8.166666E-2,-8.0000006E-2,-0E0,-5.6E-2,8.9090906E-2,-6.0000002E-2,-0E0,-0E0,-8.400001E-2,-2.3333333E-2,6.363636E-2,8.0000006E-2,-0E0,8.235294E-3,7.777778E-2,-1.0769231E-2,-7.777778E-2,1.5555556E-2,-4.6666667E-2,3.818182E-2,1.1925926E-1,3.5E-2,-3.5E-2,-0E0,-8.9090906E-2,7.983334E-1,7.9459466E-2,9.52E-2,2.8E-2,4.2000003E-2,-2.0000001E-2,-0E0,8.842105E-2,-4.117647E-2,9.1304354E-2,1.0425532E-1,4.2608693E-2,8.75E-2,1.3548387E-2,3.818182E-2,9.303226E-2,-0E0,-7.538462E-2,-2.8E-2,-9.45946E-2,5.6E-2,-1.5555556E-2,-3.5E-2,6.363636E-2,-4.6666667E-2,3.5E-2,1.5555556E-2,7.777778E-2,-0E0,8.0000006E-2,-2.0000001E-2,-8.166666E-2,-5.1578946E-2,-1.1925926E-1,3.5E-2,-0E0,3.5E-2,-5.3846154E-2,2.5454545E-2,-3.818182E-2,1.0705882E-1,1.2727273E-2,-7E-2,4.6666667E-2,-0E0,-8.400001E-2,3.5E-2,-7E-2,7.538462E-2,-3.6842106E-3,1E-1,-0E0,3.5E-2,-4.6666667E-2,4.6666667E-2,6.776258E-1,1E-1,1.0769231E-2,6.533334E-2,-1.5555556E-2,-8.400001E-2,2.8E-2,3.5E-2,-3.5E-2,1.05000004E-1,4.6666667E-2,-7.538462E-2,3.5E-2,6.631579E-2,-3.5E-2,-2.8E-2,4.2000003E-2,-3.5E-2,5.3103447E-2,9.5496684E-2,-0E0,-3.5E-2,3.5E-2,-4.2608693E-2,1.75E-2,-2.8E-2,-9.3333334E-2,1.5555556E-2,-8.0000006E-2,-7.777778E-2,-0E0,-0E0,7.636364E-2,-6.533334E-2,1.2727273E-2,7E-2,-0E0,1.1111111E-2,-5.764706E-2,7.2799996E-2,1.2727273E-2,-8.400001E-2,6.2222224E-2,2.8E-2,1.1454546E-1,4.6666667E-2,-3.5E-2,5.6E-2,-1.5555556E-2,-1.5555556E-2,7.538462E-2,-0E0,8.400001E-2,3.5E-2,-6.363636E-2,8.0000006E-2,-2.8E-2,1.75E-2,7.411765E-2,3.5E-2,-6.631579E-2,-1.2727273E-2,4.6666667E-2,4.6666667E-2,-2.4705883E-2,-0E0,9.3333334E-2,-0E0,-8.9090906E-2,-8.571428E-3,6.2222224E-2,-0E0,-7.538462E-2,1.75E-2,8.842105E-2,-3.2307692E-2,6.363636E-2,9.692308E-2,-1.5555556E-2,6.363636E-2,-4.6666667E-2,-0E0,9.692308E-2,-2.3333333E-2,-8.9090906E-2,7.777778E-2,1.0769231E-2,2.8E-2,-4.0000003E-2,-5.764706E-2,1.5555556E-2,-0E0,8.0000006E-2,-2.3333333E-2,7E-2,9.7575754E-2,1.5555556E-2,-6.363636E-2,7E-2,-1.5555556E-2,9.058824E-2,-0E0,-3.5E-2,-3.5E-2,4.6666667E-2,1.2727273E-2,-6.0000002E-2,-8.400001E-2,-1.2727273E-2,6.2222224E-2,-2.5454545E-2,-0E0,-3.5E-2,-1.0769231E-2,-9.692308E-2,-7.411765E-2,-0E0,8.0000006E-2,-0E0,-6.533334E-2,3.818182E-2,1.5555556E-2,-3.5E-2,-0E0,-9.692308E-2],"split_indices":[0,0,0,1,0,4,0,3,4,3,4,4,2,2,1,4,0,2147483647,2147483647,2147483647,2147483647,2,2,3,3,2,2,2,0,2147483647,2147483647,2147483647,2147483647,0,2,2147483647,2147483647,2147483647,2147483647,2147483647,2147483647,4,2,2147483647,2147483647,4,4,2147483647,2147483647,2147483647,2147483647,0,0,2,3,2147483647,2147483647,2147483647,2147483647,2147483647,2147483647,2147483647,2147483647,2147483647,2147483647,3,2,2147483647,2147483647,2147483647,2147483647,2147483647,2147483647,2147483647,2147483647,2147483647,2147483647,2147483647,2147483647,2147483647,2147483647,4,1,2147483647,2147483647,2147483647,2147483647,4,0,2147483647,2147483647,2147483647,2147483647,2147483647,2147483647,2147483647,2147483647,2147483647,2147483647,0,3,2147483647,2147483647,0,4,2147483647,2147483647,2147483647,2147483647,2147483647,2147483647,2147483647,2147483647,2147483647,2147483647,2147483647,2147483647,2147483647,2147483647,2147483647,2147483647,2147483647,2147483647,2147483647,2147483647,2147483647,2147483647,2147483647,2147483647,2147483647,2147483647,2147483647,2147483647,2147483647,2147483647,2147483647,2147483647,2147483647,2147483647,4,4,2147483647,2147483647,2147483647,2147483647,2147483647,2147483647,2147483647,2147483647,2,0,2147483647,2147483647,2147483647,2147483647,2147483647,2147483647,2147483647,2147483647,2147483647,2147483647,2147483647,2147483647,2147483647,2147483647,2147483647,2147483647,2147483647,2147483647,3,3,2147483647,2147483647,4,4,2147483647,2147483647,2147483647,2147483647,2147483647,2147483647,2147483647,2147483647,2147483647,2147483647,2147483647,2147483647,2147483647,2147483647,2147483647,2147483647,2147483647,2147483647,2147483647,2147483647,2147483647,2147483647,2147483647,2147483647,2147483647,2147483647,3,2,2147483647,2147483647,2147483647,2147483647,2147483647,2147483647,2147483647,2147483647,2147483647,2147483647,2147483647,2147483647,2147483647,2147483647,2147483647,2147483647,2147483647,2147483647,2147483647,2147483647,2147483647,2147483647,2147483647,2147483647,2,4,2147483647,2147483647,0,2,2147483647,2147483647,2147483647,2147483647,2147483647,2147483647,2147483647,2147483647,2147483647,2147483647,2147483647,2147483647,2147483647,2147483647,2147483647,2147483647,2147483647,2147483647,2147483647,2147483647,2147483647,2147483647,2147483647,2147483647,0,2,2147483647,2147483647,2147483647,2147483647,2147483647,2147483647,2147483647,2147483647,2147483647,2147483647,2147483647,2147483647,2147483647,2147483647,2147483647,2147483647,2147483647,2147483647,2147483647,2147483647,2147483647,2147483647,2147483647,2147483647,2147483647,2147483647,2147483647,2147483647,1,4,2147483647,2147483647,4,0,2147483647,2147483647,2147483647,2147483647,2147483647,2147483647,2147483647,2147483647,2147483647,2147483647,2147483647,2147483647,2147483647,2147483647,2147483647,2147483647,2147483647,2147483647,2147483647,2147483647,2147483647,2147483647,2147483647,2147483647,2147483647,2147483647,2147483647,2147483647,2147483647,2147483647,2,0,0,0,2147483647,2147483647,2147483647,2147483647,2147483647,2147483647,2147483647,2147483647,2147483647,2147483647,2147483647,2147483647,2147483647,2147483647,2147483647,2147483647,2147483647,2147483647,2147483647,2147483647,2147483647,2147483647,2147483647,2147483647,2147483647,2147483647,2147483647,2147483647,2147483647,2147483647,2147483647,2147483647,2147483647,2147483647,2147483647,2147483647,2147483647,2147483647,3,1,2147483647,2147483647,2147483647,2147483647,1,3,2147483647,2147483647,2147483647,2147483647,2147483647,2147483647,2147483647,2147483647,2147483647,2147483647,2147483647,2147483647,2147483647,2147483647,2147483647,2147483647,2147483647,2147483647,2147483647,2147483647,2147483647,2147483647,1,0,2147483647,2147483647,2147483647,2147483647,2147483647,2147483647,2147483647,2147483647,2147483647,2147483647,2147483647,2147483647,2147483647,2147483647,2147483647,2147483647,2147483647,2147483647,2147483647,2147483647,2147483647,2147483647,2147483647,2147483647,2147483647,2147483647,2147483647,2147483647,2147483647,2147483647,2147483647,2147483647,2147483647,2147483647,2147483647,2147483647,2147483647,2147483647,1,2,2147483647,2147483647,2147483647,2147483647,2147483647,2147483647,3,0,2147483647,2147483647,2147483647,2147483647,2147483647,2147483647,2147483647,2147483647,2147483647,2147483647,2147483647,2147483647,2147483647,2147483647,2147483647,2147483647,2147483647,2147483647,2147483647,2147483647,2147483647,2147483647,2147483647,2147483647,2147483647,2147483647,2147483647,2147483647,2147483647,2147483647,2147483647,2147483647,2147483647,2147483647,2147483647,2147483647,2147483647,2147483647,2147483647,2147483647,2147483647,2147483647,2147483647,2147483647,0,0,2147483647,2147483647,2147483647,2147483647,2147483647,2147483647,2147483647,2147483647,2147483647,2147483647,2147483647,2147483647,2147483647,2147483647,2147483647,2147483647,2147483647,2147483647,2147483647,2147483647,2147483647,2147483647,2147483647,2147483647,2147483647,2147483647,2147483647,2147483647,2147483647,2147483647,2147483647,2147483647,2147483647,2147483647,2147483647,2147483647,2147483647,2147483647,2147483647,2147483647,0,0,2147483647,2147483647,2147483647,2147483647,2147483647,2147483647,2147483647,2147483647,2147483647,2147483647,2147483647,2147483647,2147483647,2147483647,2147483647,2147483647,2147483647,2147483647,2147483647,2147483647,2147483647,2147483647,2147483647,2147483647,2147483647,2147483647,2147483647,2147483647,2147483647,2147483647,2147483647,2147483647,2147483647,2147483647,2147483647,2147483647,2147483647,2147483647,2147483647,2147483647,2147483647,2147483647,2147483647,2147483647,2147483647,2147483647,2147483647,2147483647,2147483647,2147483647,2147483647,2147483647,2147483647,2147483647,2147483647,2147483647,2147483647,2147483647,2147483647,2147483647,2147483647,2147483647,2147483647,2147483647,2147483647,2147483647,2147483647,2147483647,2147483647,2147483647,2147483647,2147483647,2147483647,2147483647,2147483647,2147483647,2147483647,2147483647,2147483647,2147483647,2147483647,2147483647],"split_type":[0,0,0,0,0,0,0,0,0,0,0,0,0,0,0,0,0,0,0,0,0,0,0,0,0,0,0,0,0,0,0,0,0,0,0,0,0,0,0,0,0,0,0,0,0,0,0,0,0,0,0,0,0,0,0,0,0,0,0,0,0,0,0,0,0,0,0,0,0,0,0,0,0,0,0,0,0,0,0,0,0,0,0,0,0,0,0,0,0,0,0,0,0,0,0,0,0,0,0,0,0,0,0,0,0,0,0,0,0,0,0,0,0,0,0,0,0,0,0,0,0,0,0,0,0,0,0,0,0,0,0,0,0,0,0,0,0,0,0,0,0,0,0,0,0,0,0,0,0,0,0,0,0,0,0,0,0,0,0,0,0,0,0,0,0,0,0,0,0,0,0,0,0,0,0,0,0,0,0,0,0,0,0,0,0,0,0,0,0,0,0,0,0,0,0,0,0,0,0,0,0,0,0,0,0,0,0,0,0,0,0,0,0,0,0,0,0,0,0,0,0,0,0,0,0,0,0,0,0,0,0,0,0,0,0,0,0,0,0,0,0,0,0,0,0,0,0,0,0,0,0,0,0,0,0,0,0,0,0,0,0,0,0,0,0,0,0,0,0,0,0,0,0,0,0,0,0,0,0,0,0,0,0,0,0,0,0,0,0,0,0,0,0,0,0,0,0,0,0,0,0,0,0,0,0,0,0,0,0,0,0,0,0,0,0,0,0,0,0,0,0,0,0,0,0,0,0,0,0,0,0,0,0,0,0,0,0,0,0,0,0,0,0,0,0,0,0,0,0,0,0,0,0,0,0,0,0,0,0,0,0,0,0,0,0,0,0,0,0,0,0,0,0,0,0,0,0,0,0,0,0,0,0,0,0,0,0,0,0,0,0,0,0,0,0,0,0,0,0,0,0,0,0,0,0,0,0,0,0,0,0,0,0,0,0,0,0,0,0,0,0,0,0,0,0,0,0,0,0,0,0,0,0,0,0,0,0,0,0,0,0,0,0,0,0,0,0,0,0,0,0,0,0,0,0,0,0,0,0,0,0,0,0,0,0,0,0,0,0,0,0,0,0,0,0,0,0,0,0,0,0,0,0,0,0,0,0,0,0,0,0,0,0,0,0,0,0,0,0,0,0,0,0,0,0,0,0,0,0,0,0,0,0,0,0,0,0,0,0,0,0,0,0,0,0,0,0,0,0,0,0,0,0,0,0,0,0,0,0,0,0,0,0,0,0,0,0,0,0,0,0,0,0,0,0,0,0,0,0,0,0,0,0,0,0,0,0,0,0,0,0,0,0,0,0,0,0,0,0,0,0,0,0,0,0,0,0,0,0,0,0,0,0,0,0,0,0,0,0,0,0,0,0,0,0,0,0,0,0,0,0,0,0,0,0],"sum_hessian":[1.03275E3,4.4225E2,5.905E2,2.49E2,1.9325E2,2.04E2,3.865E2,2.275E2,2.15E1,8.3E1,1.1025E2,1.1975E2,8.425E1,1.6775E2,2.1875E2,1.3325E2,9.425E1,1.075E1,1.075E1,1E0,8.2E1,5.4E1,5.625E1,1.1E2,9.75E0,1.775E1,6.65E1,1.635E2,4.25E0,1.05E1,2.0825E2,1.295E2,3.75E0,1.4E1,8.025E1,5.75E0,5E0,1.25E0,9.5E0,7.95E1,2.5E0,4.5E0,4.95E1,4.975E1,6.5E0,1.025E2,7.5E0,4.75E0,5E0,1.3E1,4.75E0,2.5E0,6.4E1,3.7E1,1.265E2,1.25E0,3E0,9E0,1.5E0,3.5E0,2.0475E2,1.265E2,3E0,1E0,2.75E0,1.125E1,2.75E0,1.225E1,6.8E1,2.25E0,3.5E0,1E0,4E0,8.25E0,1.25E0,1.325E1,6.625E1,1.5E0,1E0,3.5E0,1E0,4.425E1,5.25E0,4.85E1,1.25E0,4.5E0,2E0,6.6E1,3.65E1,3.5E0,4E0,3.5E0,1.25E0,2.5E0,2.5E0,2.75E0,1.025E1,2.75E0,2E0,2E0,6.2E1,3.575E1,1.25E0,1E0,1.255E2,2E0,1E0,2E0,7E0,2.5E0,1E0,3.2E1,1.7275E2,1.255E2,1E0,1.5E0,1.5E0,1.25E0,1.5E0,8.75E0,2.5E0,1.75E0,1E0,1.125E1,1E0,6.4E1,4E0,1.25E0,1E0,1E0,3E0,4E0,4.25E0,3.5E0,9.75E0,3.1E1,3.525E1,1E0,2.5E0,2.875E1,1.55E1,2E0,3.25E0,4.35E1,5E0,1.75E0,2.75E0,1E0,1E0,4.5E1,2.1E1,3.05E1,6E0,2.5E0,1.5E0,2.25E0,1.25E0,1E0,1.5E0,1.25E0,1.5E0,2.5E0,7.75E0,1E0,1.75E0,1E0,1E0,1E0,1E0,5.25E0,5.675E1,1.75E0,3.4E1,2.7E1,9.85E1,1E0,1E0,1.75E0,5.25E0,1E0,3.1E1,1.7175E2,1E0,1.245E2,1E0,1E0,1.5E0,6.5E0,4.75E0,1.15E1,5.25E1,1.25E0,2.75E0,2.5E0,1.5E0,3.5E0,6.25E0,2.175E1,9.25E0,3.3E1,2.25E0,1.85E1,1.025E1,4.25E0,1.125E1,1.5E0,1.75E0,3.275E1,1.075E1,1E0,4E0,1.75E0,1E0,3.7E1,8E0,1.425E1,6.75E0,2.95E1,1E0,1.25E0,1.25E0,1E0,1.25E0,4.75E0,3E0,1.5E0,3.75E0,8.5E0,4.825E1,1.25E0,3.275E1,2.475E1,2.25E0,4.275E1,5.575E1,2.95E1,1.5E0,2.75E0,2E0,9.5E0,2E0,1.75E0,1E0,1.25E0,1.25E0,2E0,1.5E0,3.5E0,2.75E0,1.825E1,3.5E0,6.25E0,3E0,3.05E1,2.5E0,1E0,1.25E0,1.05E1,8E0,4.75E0,5.5E0,3.25E0,1E0,5.25E0,6E0,2.55E1,7.25E0,9.75E0,1E0,3E0,1E0,3.05E1,6.5E0,2.25E0,5.75E0,6.75E0,7.5E0,5.75E0,1E0,2.725E1,2.25E0,2.5E0,2.25E0,1E0,2E0,4E0,4.5E0,9.5E0,3.875E1,1.4E1,1.875E1,2.35E1,1.25E0,1.25E0,1E0,4.05E1,2.25E0,1E0,5.475E1,3.5E0,2.6E1,1E0,1.75E0,7E0,2.5E0,1E0,1E0,1.75E0,1.75E0,1.25E0,1.5E0,1.4E1,4.25E0,2.5E0,1E0,4.5E0,1.75E0,1E0,2E0,1.25E0,2.925E1,1.25E0,1.25E0,5.75E0,4.75E0,2.5E0,5.5E0,3.75E0,1E0,1.25E0,4.25E0,1.5E0,1.75E0,3.25E0,2E0,1E0,5E0,2.225E1,3.25E0,5.5E0,1.75E0,2E0,1E0,2.5E1,5.5E0,3.25E0,3.25E0,1.75E0,4E0,3E0,3.75E0,6E0,1.5E0,1.75E0,4E0,2.375E1,3.5E0,1E0,1.5E0,1.75E0,2.25E0,2E0,2.5E0,7.5E0,2E0,2.75E0,3.6E1,1.3E1,1E0,8.25E0,1.05E1,8E0,1.55E1,1.25E0,3.925E1,1.25E0,1E0,9.75E0,4.5E1,2.5E0,1E0,1E0,1.5E0,4.25E0,9.75E0,2.75E0,1.5E0,1.25E0,1.25E0,2.75E0,1.75E0,4E0,1.75E0,2.5E0,2.25E0,2.5E0,3E0,1E0,2.75E0,1.5E0,1.75E0,4E0,1E0,1.275E1,9.5E0,2E0,1.25E0,3.25E0,2.25E0,2E1,5E0,2.5E0,3E0,1.5E0,1.75E0,2.5E0,1.5E0,1.5E0,1.5E0,2E0,1.75E0,2.5E0,1.5E0,2.025E1,3.5E0,2.25E0,1.25E0,1.25E0,1.25E0,1.75E0,5.75E0,1E0,1E0,1E0,1.75E0,2.775E1,8.25E0,1.15E1,1.5E0,4E0,4.25E0,2E0,8.5E0,3.25E0,4.75E0,1.075E1,4.75E0,3E0,6.75E0,7.25E0,3.775E1,2E0,2.25E0,1.5E0,8.25E0,1.5E0,1.25E0,1E0,1.75E0,1.25E0,1E0,1.25E0,1.25E0,1.5E0,2.5E0,7.75E0,5E0,3.75E0,5.75E0,1E0,1E0,1E0,2.25E0,1.55E1,4.5E0,3.25E0,1.75E0,1E0,2E0,1E0,1.5E0,1E0,1E0,2.25E0,1.8E1,2.5E0,1E0,1E0,1.25E0,2.15E1,6.25E0,6E0,2.25E0,2.75E0,1.25E0,1.5E0,2.75E0,1E0,1E0,5E0,3.5E0,2.25E0,1E0,3.75E0,1E0,2.75E0,4E0,1E0,6.25E0,3.675E1,1E0,1E0,1E0,4.75E0,3E0,1.5E0,3.5E0,1.25E0,2.5E0,1.25E0,1E0,1.1E1,4.5E0,2.75E0,1.75E0,1E0,1E0,1.475E1,3.25E0,1.15E1,1E1,2.75E0,3.5E0,1.5E0,4.5E0,1.25E0,1E0,1.5E0,1.25E0,1.25E0,2.25E0,1E0,2.75E0,1E0,1.75E0,2.5E0,1.5E0,3E0,3.25E0,1E0,3.75E0,1.75E0,1.25E0,3.5E0,7.5E0,1E0,3.5E0,1E0,1.75E0,1.125E1,3.5E0,1E0,2.25E0,3E0,8.5E0,5.5E0,4.5E0,2.25E0,1.25E0,1.75E0,1.25E0,1E0,2.25E0,2E0,1.75E0,1.25E0,2.25E0,1.5E0,6E0,3.25E0,8E0,1E0,2.5E0,2E0,1E0,7.25E0,1.25E0,4.5E0,1E0,1.25E0,3.25E0,1E0,1E0,1E0,1.25E0,1.75E0,4.25E0,1.5E0,1.75E0,3.5E0,4.5E0,1E0,1E0,2.25E0,2.25E0,3.25E0,1E0,2.5E0,1E0,2.75E0,1.75E0,1.25E0,1E0,1E0,2.25E0],"tree_param":{"num_deleted":"532","num_feature":"5","num_nodes":"615","size_leaf_vector":"0"}},{"base_weights":[1.04321934E-1,-1.0024638E0,9.3352395E-1,-1.3402414E0,-5.634051E-1,2.6471123E-1,1.2856464E0,-1.4052086E0,-6.2240595E-1,-7.652534E-1,-4.0594816E-1,1.2092353E-1,5.479895E-1,9.977265E-1,1.5482216E0,-1.5685011E0,-1.160598E0,-1.0216513E0,-1.701635E-1,-7.9926014E-1,1.7559476E-1,-1.0102806E-1,-6.9177085E-1,-4.2948513E-3,4.5427653E-1,-1.1066082E0,5.950505E-1,-4.3841052E-1,1.0116761E0,5.100683E-1,1.566703E0,-1.5977354E0,-4.3478045E-1,-5.597947E-1,-1.2573427E0,-1.2200792E0,-6.2806976E-1,1.1373762E0,-4.3418983E-1,-5.5201054E-1,-1.0090021E0,6.9892305E-1,-3.6569077E-1,1.977616E-2,-7.416661E-1,-7.870294E-1,4.5052607E-2,3.9005706E-1,-1.6528548E-1,5.285958E-1,-7.972817E-1,6.293973E-1,-3.530642E-1,1.031604E0,1.7088524E-1,8.51711E-1,-2.8611377E-1,5.794085E-1,1.5815566E0,-1.6223608E0,-4.1298506E-1,2.3571624E-1,-1.1318754E0,-8.793185E-1,6.327033E-1,-7.8237736E-1,-1.3302999E0,-4.293985E-1,-1.5199094E0,1.8621808E-1,-1.1662495E0,-6.614098E-1,6.927973E-1,-8.552628E-1,-2.5130117E-1,-1.5745339E-1,-1.1504946E0,-1.8819435E-1,5.4015E-1,1.7869088E-1,-9.9717396E-1,-8.183241E-1,2.5117937E-1,-3.2130647E-1,7.016179E-1,5.4326487E-1,-3.7724507E-1,1.4465831E-1,-4.6449354E-1,3.1122145E-1,9.507245E-1,1.0895936E0,5.464127E-1,7.3646265E-1,1.1066375E0,-3.951143E-1,8.8118947E-1,1.1337687E0,1.591354E-1,-6.857826E-2,9.2595893E-1,-1.661194E0,-1.2048686E0,4.7144178E-1,-1.1318754E0,-1.2242833E0,3.3289278E-1,1.1723881E0,-2.482184E-1,-9.154513E-1,2.7493307E-1,-1.3717206E0,-5.25519E-1,-4.8434652E-2,-1.297593E0,-1.0377141E0,1.7559476E-1,-5.230871E-1,3.1671304E-1,-5.5437905E-1,5.016221E-1,-1.2152418E0,-1.141147E-1,-5.41964E-1,7.651272E-1,1.1336951E0,-2.963034E-1,-1.2659549E0,-7.211501E-3,-8.936238E-1,-1.234416E-1,-8.76406E-1,1.7151736E-1,2.2956891E-1,1.0310091E0,3.2421315E-1,-8.70745E-1,3.112696E-1,-7.9329044E-1,-8.758232E-1,-1.09362796E-1,1.404392E0,1.2933627E-1,1.2027522E0,1.2425245E-2,3.652075E-1,1.4357271E0,-6.523391E-2,6.091531E-1,8.2016265E-1,-8.386835E-1,-2.1945229E-1,1.1199188E0,4.0400273E-1,-1.1074142E0,-1.5727687E-1,-1.2917643E0,-1.3735352E0,-6.1898315E-1,-1.8583874E-1,7.0358324E-1,-1.1204578E0,-4.691784E-1,-9.552251E-1,-1.4433502E0,2.7493307E-1,-8.6561316E-1,4.3438932E-1,-6.3579196E-1,4.108435E-2,-1.2332822E0,6.9892305E-1,-3.6569077E-1,-2.4546598E-1,-1.2076352E0,7.136787E-1,-4.219831E-1,-1.0377198E0,2.1851388E-1,3.4507595E-2,-1.2735354E0,4.7818992E-1,-6.9752795E-1,-1.3129863E-2,1.4344677E0,1.5920776E0,2.4854127E-1,-9.1690433E-1,4.0317172E-1,-7.056036E-1,-1.3575616E0,-7.3360574E-1,4.3831605E-1,4.3134665E-1,-1.9343175E-1,-6.767333E-1,4.6004784E-1,1.351968E0,-4.0822878E-1,-2.3566003E-1,-1.1187489E0,-2.3983008E-1,4.9349636E-1,-1.389102E0,-1.3119612E-2,-1.1035074E0,1.903667E-3,-8.401531E-1,1.7148504E-1,3.086535E-1,-4.546437E-1,1.5159403E0,2.5514284E-1,-1.0655149E0,1.0844779E0,1.38111515E-2,6.713664E-1,9.186801E-1,-6.5206057E-1,-5.397395E-1,6.5968287E-1,3.839557E-1,1.0850554E0,8.0637103E-1,1.1901805E0,-1.4432114E0,-3.8114098E-1,-1.0752608E0,3.9439984E-2,-6.43077E-2,-8.503038E-1,-1.1551263E0,6.293904E-2,-1.5002196E0,-9.493142E-1,-1.1449649E0,-1.700606E-1,-3.7212667E-1,1.1373762E0,6.9892305E-1,-6.3502246E-1,-1.5758405E0,-6.6548485E-1,-9.514016E-1,6.566307E-1,1.0388949E0,1.9375369E-1,-1.3504536E0,-2.4479863E-1,1.0976276E0,-2.0261303E-1,-3.6338198E-1,-1.2406723E0,5.576247E-1,-1.0856727E0,-1.7990166E-1,6.615595E-1,-2.0193012E-1,-1.193264E0,-2.0994036E-1,7.935898E-1,-8.9398384E-1,-1.4958934E-2,-5.4878944E-1,-1.6021715E0,3.1184653E-2,6.9579047E-1,-2.298368E-1,-8.0824006E-1,7.1485275E-1,-4.1005746E-1,3.866174E-1,1.5152583E0,-5.733433E-1,7.8984076E-1,7.702782E-1,-1.014749E-2,2.1615006E-1,-2.3655294E-1,-3.7485614E-1,-1.4262978E0,-7.91814E-1,6.628042E-1,-1.3830388E-1,-1.3912754E0,1.1035206E0,1.7653445E-2,-1.762304E-1,1.193886E0,-9.0769386E-1,6.5314144E-1,6.450503E-1,-2.482184E-1,1.9185688E-1,-1.2587588E0,1.0788021E0,4.9716556E-1,1.0869551E0,-9.617447E-3,8.509956E-1,1.61605E0,9.6334326E-1,-7.323291E-1,1.2002277E0,1.591354E-1,-6.1505425E-1,4.5717064E-1,-1.2950323E0,-5.04895E-1,-1.2200147E-1,-1.1531712E0,1.9375369E-1,-1.1132386E0,-1.289452E0,-2.4479863E-1,3.8343884E-2,9.760797E-1,2.5427455E-1,-6.3502246E-1,-6.795517E-1,1.7950537E-2,-2.1848084E-1,-1.3919426E0,-2.5266556E-2,8.846784E-1,-1.0046934E0,-7.795823E-2,3.5185376E-1,-8.76406E-1,-1.1693014E0,2.1497174E-1,-1.6333294E-1,9.593381E-1,-8.0824006E-1,2.1461922E-1,6.620639E-1,-9.5708627E-1,1.0607493E0,-1.10426314E-1,-5.907583E-1,3.863216E-1,6.5907526E-1,-8.3403236E-1,-1.5967152E0,-2.0540282E-1,3.973313E-1,-6.721879E-1,-8.16895E-1,1.7381763E-1,-6.1641693E-1,1.7335725E-1,1.3955454E0,1.9248493E-1,-2.0394093E-1,-1.2811322E0,2.7437204E-1,1.2403483E0,6.339466E-2,7.8202957E-1,1.4282475E0,2.9786935E-1,-6.294202E-1,3.2098666E-1,1.0066688E0,-7.035559E-1,5.229223E-1,1.123393E0,1.1060559E0,1.404185E0,-1.700606E-1,-6.1505425E-1,-1.700606E-1,-1.354695E0,2.5427455E-1,-6.3502246E-1,-8.651266E-1,2.1986587E-1,-7.7951205E-1,3.2198107E-1,-6.4313656E-1,-1.38241E0,3.6813453E-1,-6.3804287E-1,-3.1337383E-1,1.113411E0,1.4175384E0,2.115779E-1,-1.2890707E0,-9.864718E-3,2.552492E-1,1.3077364E0,4.56263E-1,-8.029648E-1,-1.260829E0,3.827834E-1,1.0433325E0,-6.7337483E-1,-1.2814808E0,-8.217518E-3,8.9260584E-1,-1.3189262E-2,-1.2478642E-1,-1.2056158E0,9.778989E-1,-5.4034173E-1,-2.33023E-1,6.5992546E-1,1.7292725E-1,1.4287262E0,2.3936953E-1,-1.1373762E0,1.8510637E-1,1.1191734E0,-9.4350624E-1,-3.2058746E-2,6.7554164E-1,-6.0233164E-1,2.476916E-1,1.120442E0,-5.5693233E-1,1.2310915E0,1.2988149E0,4.248389E-1,1.3649691E0,8.6005735E-1,1.7785636E-1,1.52595E0,-3.6763334E-1,-1.3639257E0,6.7159027E-1,-3.1010005E-1,-2.3984179E-1,-1.1240042E0,-6.9619715E-1,-1.6604016E0,2.5117937E-1,-6.323155E-1,-4.0822878E-1,6.575569E-1,8.0709314E-1,-3.9868444E-1,2.1598858E-1,1.3160795E0,-6.049521E-1,3.8312745E-1,-6.7186E-1,3.2711583E-1,1.2500248E0,2.1057631E-1,2.1116264E-1,-8.6896855E-1,1.5976675E0,2.1180227E-1,-7.888441E-1,4.121526E-1,5.513128E-1,-6.0017633E-1,1.726578E-1,1.4045535E0,-2.1590331E-1,1.0701648E0,6.372478E-1,-2.519934E-1,1.926272E-1,1.19343E0,2.080738E-1,-1.1755965E0,-2.1240875E-1,8.042603E-1,1.4246784E0,-5.2790955E-2,-6.600784E-2,9.2859143E-1,-2.4527656E-1,6.1568356E-1,-8.6099535E-1,1.6289982E-1,3.3949196E-4,1.2083856E0,-5.660932E-1,2.8911135E-1,-3.6897737E-1,-1.2936041E0,2.5117937E-1,-1.1062808E0,-1.2029375E0,-4.93164E-3,7.80841E-1,-2.9438257E-1,-1.1142915E0,-2.372507E-1,1.0406864E0,-1.4985281E-1,1.2223841E0,-2.581636E-1,-1.1373762E0,2.0418824E-1,7.250084E-1,-7.018008E-1,1.348306E0,1.926272E-1,1.7358454E-1,1.4641068E0,6.1850625E-1,-6.021199E-1,2.6051667E-1,1.0129517E0,3.8984764E-2,-1.2401986E0,-1.4882085E-1,6.9579047E-1,-2.3780267E-1,2.301512E-1,4.2971564E-3,1.112455E0,2.0876022E-1,-6.66705E-1,1.3264575E0,1.6891576E-1,-6.799723E-1,6.324642E-1,4.0871412E-1,-8.216093E-1,1.505759E0,1.8406205E-1,1.017441E0,-4.651061E-1,2.727627E-1,1.1568515E0,5.787643E-1,-6.3804287E-1,2.126804E-1,-1.0120133E0,7.9071915E-1,1.7508021E-1,1.6552993E0,1.1049238E0,-7.162589E-1,-5.2790955E-2,9.426247E-1,-1.6211769E-1,1.193234E0,1.7358454E-1,1.2560143E0,1.2604752E-1,6.288887E-1,-5.6673294E-1,1.3058777E0,4.7429955E-1,-2.380362E-1,-7.162589E-1,1.4959141E0,8.121646E-1,-5.2307975E-1,1.3255452E0,4.9013123E-1,1.5819395E0,1.2604752E-1,9.6032E-1,2.2324862E-1,1.3010229E0,6.1850625E-1,-2.7133718E-1],"categories":[],"categories_nodes":[],"categories_segments":[],"categories_sizes":[],"default_left":[1,1,1,1,1,1,1,1,1,1,1,1,1,1,1,1,1,1,1,1,1,1,1,1,1,1,1,0,1,1,1,1,1,1,1,1,1,1,1,1,1,1,1,1,1,1,1,1,1,1,0,1,1,1,1,1,1,1,1,1,1,1,1,1,1,1,1,1,1,1,1,1,1,1,1,1,1,1,1,1,1,1,1,1,1,1,1,1,1,1,1,1,1,1,1,1,1,1,1,1,1,1,1,1,1,1,1,1,1,1,1,1,1,1,1,1,1,1,1,1,1,1,1,1,1,1,1,1,1,1,1,1,1,1,1,1,1,1,1,1,1,0,1,1,1,1,1,1,1,1,1,0,1,1,1,1,1,1,1,1,1,1,1,1,1,1,1,1,1,1,1,1,1,1,0,1,1,1,1,1,1,1,1,1,1,1,1,1,1,1,1,1,1,1,1,1,1,1,1,1,1,1,1,1,1,1,1,1,1,1,1,1,1,1,1,1,1,1,1,1,1,1,1,1,1,1,1,1,1,1,1,1,1,1,1,1,1,1,1,1,1,1,1,1,1,1,1,1,1,1,1,1,1,1,1,1,1,1,1,1,1,1,1,1,1,1,1,1,1,1,1,1,1,1,1,1,1,1,1,1,1,1,1,1,1,1,1,1,1,1,1,1,1,1,1,1,1,1,1,1,1,1,0,1,1,1,1,1,1,1,1,1,1,1,1,1,1,1,1,1,1,1,1,1,1,1,1,1,1,1,1,1,1,1,1,1,1,1,1,1,1,1,1,1,1,1,1,1,1,1,1,1,1,1,1,1,1,1,1,1,1,1,1,1,1,1,1,1,1,1,1,1,1,1,1,1,1,1,1,1,1,1,1,1,1,1,1,1,1,1,1,1,1,1,1,1,1,1,1,1,1,1,1,1,1,1,1,1,1,1,1,1,1,1,1,1,1,1,1,1,0,1,1,1,1,1,1,1,1,1,1,1,1,1,1,1,1,1,1,1,1,1,1,1,1,1,1,1,1,1,1,1,1,1,1,1,1,1,1,1,1,1,1,1,1,1,1,1,1,1,1,1,1,1,1,1,1,1,1,1,1,1,1,1,1,1,1,1,1,1,1,1,1,1,1,1,1,1,1,1,1,1,1,1,1,1,1,1,1,1,1,1,1,1,1,1,1,1,1,1,1,1,1,1,1,1,1,1,1,1,1,1,1,1,1,1,1,1,1,1,1,1,1,1,1,1,1,1,1,1,1,1,1,1,1,1,1,1,1,1,1,1,1],"id":1,"left_children":[1,3,5,7,9,11,13,15,-1,19,21,23,-1,27,-1,-1,-1,-1,-1,39,-1,43,-1,-1,49,-1,-1,-1,53,-1,-1,-1,-1,-1,-1,-1,-1,-1,-1,73,-1,-1,-1,77,-1,-1,-1,-1,-1,89,-1,-1,-1,93,-1,-1,-1,-1,-1,-1,-1,-1,-1,-1,-1,-1,-1,-1,-1,-1,-1,-1,-1,-1,117,-1,-1,123,125,-1,-1,-1,-1,-1,-1,-1,-1,-1,-1,141,-1,-1,-1,-1,151,-1,-1,-1,-1,-1,-1,-1,-1,-1,-1,-1,-1,-1,-1,-1,-1,-1,-1,-1,-1,-1,-1,173,-1,-1,-1,-1,-1,-1,-1,-1,-1,-1,-1,-1,-1,-1,-1,-1,-1,-1,-1,-1,-1,-1,-1,-1,209,-1,-1,-1,-1,-1,-1,-1,-1,-1,223,-1,-1,-1,-1,-1,-1,-1,-1,-1,-1,-1,-1,-1,-1,-1,-1,-1,-1,-1,-1,243,-1,-1,-1,-1,-1,-1,-1,-1,-1,-1,-1,-1,-1,-1,-1,-1,-1,-1,-1,-1,-1,-1,-1,-1,-1,-1,-1,-1,-1,-1,-1,-1,-1,-1,-1,287,-1,-1,-1,-1,-1,-1,-1,-1,-1,-1,-1,-1,-1,301,-1,-1,-1,-1,-1,-1,-1,-1,-1,-1,-1,-1,-1,-1,-1,-1,-1,-1,-1,-1,-1,-1,-1,-1,-1,-1,-1,-1,-1,-1,-1,-1,-1,-1,-1,-1,-1,-1,-1,-1,-1,-1,-1,-1,-1,-1,-1,-1,-1,-1,-1,-1,-1,-1,-1,-1,-1,-1,-1,-1,-1,-1,-1,-1,-1,-1,-1,-1,-1,-1,-1,-1,-1,-1,-1,-1,-1,365,-1,-1,-1,-1,-1,-1,-1,-1,-1,-1,-1,-1,-1,-1,-1,-1,-1,-1,-1,-1,-1,-1,-1,-1,-1,-1,-1,-1,-1,-1,-1,-1,-1,-1,-1,-1,-1,-1,-1,-1,-1,-1,-1,-1,-1,-1,-1,-1,-1,-1,-1,-1,-1,-1,-1,-1,-1,-1,-1,-1,-1,-1,-1,419,-1,-1,-1,-1,-1,-1,-1,-1,-1,-1,-1,-1,-1,-1,-1,-1,-1,-1,-1,-1,-1,-1,-1,-1,-1,-1,-1,-1,-1,-1,-1,-1,-1,-1,-1,-1,-1,-1,-1,-1,-1,-1,-1,-1,-1,-1,-1,-1,-1,-1,-1,-1,-1,-1,-1,-1,-1,-1,-1,-1,-1,-1,-1,-1,-1,-1,-1,-1,-1,-1,-1,-1,-1,-1,-1,-1,-1,-1,-1,-1,-1,-1,-1,-1,-1,-1,-1,-1,-1,-1,-1,-1,-1,-1,-1,-1,-1,-1,-1,-1,-1,-1,-1,-1,-1,-1,-1,-1,-1,-1,-1,-1,-1,-1,-1,-1,-1,-1,-1,-1,-1,-1,-1,-1,-1,-1,-1,-1,-1,-1,-1,-1,-1,-1,-1,-1,-1,-1,-1,-1,-1,-1,-1,-1,-1,-1,-1,-1,-1,-1,-1,-1,-1,-1,-1,-1,-1,-1,-1,-1,-1,-1,-1,-1,-1,-1,-1,-1,-1,-1,-1,-1,-1,-1,-1,-1,-1,-1,-1,-1,-1,-1,-1,-1,-1,-1,-1,-1,-1,-1,-1,-1,-1,-1,-1,-1,-1],"loss_changes":[9.479304E2,6.486069E1,1.3870746E2,1.0753387E1,5.858425E0,8.279642E0,2.7677063E1,7.280609E0,3.8865433E0,2.8257484E0,9.619108E0,5.728727E0,6.0082283E0,4.1933746E0,3.0448303E0,3.7395935E0,4.82135E0,1.5089417E-1,4.54821E0,3.6530838E0,1.3172088E0,4.26813E0,4.0511017E0,6.459055E0,3.9068995E0,0E0,2.418829E0,0E0,2.9348145E0,1.6001958E0,1.9632874E0,3.1243286E0,2.480907E0,6.2666245E0,1.7685089E0,9.468317E-1,2.8453832E0,0E0,3.1456757E0,3.3842068E0,4.9655495E0,0E0,0E0,5.211334E0,2.2347631E0,1.8533459E0,2.028419E0,3.6724634E0,6.7652826E0,3.0049906E0,0E0,1.9043026E0,0E0,3.1973877E0,2.5583477E0,5.503781E-1,0E0,1.071464E0,0E0,5.8502197E-2,3.0702596E0,0E0,0E0,5.5250664E0,2.0731218E0,2.1121397E0,1.574173E0,0E0,0E0,0E0,0E0,3.5425715E0,0E0,3.7999458E0,3.443624E0,2.1733668E0,2.308609E0,1.2041457E1,7.1574492E0,0E0,1.8526855E0,2.4780388E0,0E0,1.6541023E0,0E0,3.5879474E0,2.1860769E0,5.910125E0,5.3071275E0,4.835279E0,2.761526E0,1.730752E0,2.2448006E0,5.9238415E0,2.754959E0,2.581922E0,0E0,0E0,0E0,0E0,0E0,0E0,1.1125507E0,0E0,0E0,2.9788017E-2,8.032452E-1,0E0,0E0,5.6993675E-1,0E0,5.5620575E-1,1.5967118E0,1.9060916E0,0E0,3.5291138E0,1.3172088E0,2.5045714E0,2.4988632E0,2.0933752E0,0E0,2.537136E0,0E0,4.4167695E0,5.0953655E0,2.9492893E0,3.1894681E0,0E0,0E0,2.9212608E0,2.376981E0,0E0,4.3885198E-1,3.7577565E0,4.9392853E0,0E0,2.8755856E-1,3.2808485E0,2.6536937E0,3.398427E0,4.45253E0,0E0,2.520992E0,2.3568325E0,5.195939E0,4.4786775E-1,0E0,4.207157E0,3.3871307E0,3.9992218E0,0E0,0E0,2.151352E0,0E0,0E0,0E0,1.2714329E0,0E0,1.1681056E0,0E0,0E0,0E0,7.924621E-1,2.6116543E0,7.564545E-2,0E0,5.327389E-1,2.5485373E0,0E0,1.9996057E0,1.672266E0,0E0,0E0,8.101724E0,0E0,6.858289E-1,0E0,0E0,0E0,0E0,2.2587967E0,1.9082525E0,3.6747236E0,3.970423E0,0E0,0E0,8.26429E-1,4.994893E-1,1.0638678E0,4.374754E0,1.4438572E0,0E0,3.7120473E-1,0E0,0E0,3.461635E-2,3.341471E0,6.748953E-1,0E0,0E0,0E0,3.371233E0,3.352398E0,0E0,2.3034728E-1,2.6396446E0,2.8847182E0,2.1273656E0,2.2738116E0,7.931887E0,3.4762523E0,0E0,8.467971E-1,0E0,0E0,0E0,0E0,0E0,2.5451503E0,0E0,2.900858E0,4.4336987E0,1.5118408E0,7.6986103E0,9.823303E-1,0E0,0E0,0E0,0E0,1.3564392E0,0E0,2.9942417E-1,0E0,0E0,1.2479863E0,0E0,0E0,0E0,0E0,0E0,0E0,0E0,2.906878E0,1.3552318E0,1.0974874E0,0E0,0E0,0E0,8.4269375E-1,0E0,0E0,1.8794911E0,9.7062016E-1,8.3225834E-1,0E0,0E0,0E0,0E0,0E0,0E0,0E0,2.3141804E0,2.9137356E0,2.2645001E0,0E0,0E0,0E0,0E0,0E0,2.51833E0,1.1061894E0,0E0,0E0,3.951501E0,0E0,4.0814695E0,2.4141839E0,0E0,0E0,3.1607516E0,1.5438194E0,0E0,0E0,1.3389736E0,0E0,0E0,2.0636826E0,2.0294905E0,1.0429726E0,9.2031837E-1,0E0,0E0,0E0,0E0,0E0,1.3809204E0,4.6727667E0,1.1221819E0,2.5052474E0,5.121196E0,0E0,1.2949467E0,0E0,5.9846497E-1,0E0,0E0,0E0,0E0,2.4296641E-2,0E0,1.0549803E0,0E0,0E0,0E0,8.4269375E-1,0E0,0E0,0E0,0E0,1.6077845E0,2.1893227E0,0E0,0E0,0E0,0E0,2.284031E0,1.2961988E0,3.6399913E0,0E0,0E0,0E0,0E0,2.697915E0,0E0,0E0,0E0,1.7950506E0,2.0033426E0,2.230181E0,3.2541857E0,5.052281E0,0E0,1.559829E0,0E0,0E0,0E0,0E0,0E0,1.7922107E0,1.5151172E0,4.9750915E0,0E0,0E0,0E0,0E0,8.382993E-1,1.9137268E0,3.7033017E0,4.41751E0,0E0,0E0,7.667146E-1,3.0233707E0,1.1892948E0,0E0,7.5595E0,1.7416973E0,4.007126E0,4.4583397E0,0E0,0E0,0E0,0E0,0E0,0E0,1.295938E0,0E0,0E0,1.6436898E0,2.3953052E0,8.458061E-1,0E0,0E0,9.236828E-1,0E0,0E0,1.5122819E0,0E0,0E0,1.7650014E0,0E0,0E0,0E0,0E0,0E0,6.744952E-1,0E0,0E0,0E0,0E0,2.9279547E0,1.2704595E0,0E0,5.712333E-1,1.3560449E0,0E0,0E0,0E0,1.5111561E0,2.9878721E0,0E0,3.0607169E0,3.6707573E0,0E0,0E0,2.4283903E0,0E0,8.415292E-1,7.512646E-1,2.2554069E0,0E0,0E0,1.438442E0,3.2860336E0,2.8802757E0,8.9073104E-1,0E0,1.4477463E0,0E0,1.6204267E0,0E0,1.6727641E0,2.905717E-1,2.1222837E0,0E0,0E0,0E0,0E0,0E0,0E0,0E0,0E0,0E0,1.7876909E0,2.250083E0,0E0,0E0,0E0,0E0,0E0,2.7786493E-1,0E0,0E0,0E0,4.920658E0,4.115308E0,1.7436068E0,2.6805475E0,0E0,0E0,8.380275E-1,0E0,0E0,0E0,0E0,0E0,0E0,0E0,0E0,1.5429993E0,0E0,1.8381943E0,2.0706291E0,0E0,0E0,0E0,0E0,0E0,0E0,2.3923879E0,8.155791E-1,0E0,0E0,0E0,0E0,0E0,2.4629737E-1,1.2822676E0,7.94734E-1,0E0,0E0,1.3935952E0,3.7458863E0,0E0,1.8373431E0,0E0,0E0,0E0,0E0,0E0,0E0,0E0,1.5987549E0,0E0,0E0,3.7633648E0,3.5649261E0,1.8303192E0,0E0,0E0,0E0,0E0,0E0,0E0,0E0,0E0,0E0,0E0,0E0,1.7706532E0,1.3282204E-1,0E0,0E0,2.052002E-1,0E0,0E0,3.4996605E-1,2.261437E0,8.730049E-1,0E0,0E0,0E0,0E0,0E0,0E0,0E0,1.6502314E0,0E0,0E0,0E0,2.0342188E0,1.7247658E0,0E0,0E0,0E0,0E0,2.5814414E-2,1.0794868E0,5.355571E0,0E0,0E0,6.496811E-1,7.922511E-1,0E0,0E0,0E0,0E0,0E0,1.5271554E0,8.510909E-1,0E0,0E0,0E0],"parents":[2147483647,0,0,1,1,2,2,3,3,4,4,5,5,6,6,7,7,8,8,9,9,10,10,11,11,12,12,13,13,14,14,15,15,16,16,17,17,18,18,19,19,20,20,21,21,22,22,23,23,24,24,26,26,28,28,29,29,30,30,31,31,32,32,33,33,34,34,35,35,36,36,38,38,39,39,40,40,43,43,44,44,45,45,46,46,47,47,48,48,49,49,51,51,53,53,54,54,55,55,57,57,59,59,60,60,63,63,64,64,65,65,66,66,71,71,73,73,74,74,75,75,76,76,77,77,78,78,80,80,81,81,83,83,85,85,86,86,87,87,88,88,89,89,90,90,91,91,92,92,93,93,94,94,95,95,102,102,105,105,106,106,109,109,111,111,112,112,113,113,115,115,116,116,117,117,118,118,119,119,121,121,123,123,124,124,125,125,126,126,129,129,130,130,132,132,133,133,134,134,136,136,137,137,138,138,139,139,140,140,142,142,143,143,144,144,145,145,147,147,148,148,149,149,152,152,156,156,158,158,162,162,163,163,164,164,166,166,167,167,169,169,170,170,173,173,175,175,180,180,181,181,182,182,183,183,186,186,187,187,188,188,189,189,190,190,192,192,195,195,196,196,197,197,201,201,202,202,204,204,205,205,206,206,207,207,208,208,209,209,210,210,212,212,218,218,220,220,221,221,222,222,223,223,224,224,229,229,231,231,234,234,242,242,243,243,244,244,248,248,251,251,252,252,253,253,261,261,262,262,263,263,269,269,270,270,273,273,275,275,276,276,279,279,280,280,283,283,286,286,287,287,288,288,289,289,295,295,296,296,297,297,298,298,299,299,301,301,303,303,308,308,310,310,314,314,319,319,320,320,325,325,326,326,327,327,332,332,336,336,337,337,338,338,339,339,340,340,342,342,348,348,349,349,350,350,355,355,356,356,357,357,358,358,361,361,362,362,363,363,365,365,366,366,367,367,368,368,375,375,378,378,379,379,380,380,383,383,386,386,389,389,395,395,400,400,401,401,403,403,404,404,408,408,409,409,411,411,412,412,415,415,417,417,418,418,419,419,422,422,423,423,424,424,425,425,427,427,429,429,431,431,432,432,433,433,443,443,444,444,450,450,454,454,455,455,456,456,457,457,460,460,469,469,471,471,472,472,479,479,480,480,486,486,487,487,488,488,491,491,492,492,494,494,502,502,505,505,506,506,507,507,519,519,520,520,523,523,526,526,527,527,528,528,536,536,540,540,541,541,546,546,547,547,548,548,551,551,552,552,558,558,559,559],"right_children":[2,4,6,8,10,12,14,16,-1,20,22,24,-1,28,-1,-1,-1,-1,-1,40,-1,44,-1,-1,50,-1,-1,-1,54,-1,-1,-1,-1,-1,-1,-1,-1,-1,-1,74,-1,-1,-1,78,-1,-1,-1,-1,-1,90,-1,-1,-1,94,-1,-1,-1,-1,-1,-1,-1,-1,-1,-1,-1,-1,-1,-1,-1,-1,-1,-1,-1,-1,118,-1,-1,124,126,-1,-1,-1,-1,-1,-1,-1,-1,-1,-1,142,-1,-1,-1,-1,152,-1,-1,-1,-1,-1,-1,-1,-1,-1,-1,-1,-1,-1,-1,-1,-1,-1,-1,-1,-1,-1,-1,174,-1,-1,-1,-1,-1,-1,-1,-1,-1,-1,-1,-1,-1,-1,-1,-1,-1,-1,-1,-1,-1,-1,-1,-1,210,-1,-1,-1,-1,-1,-1,-1,-1,-1,224,-1,-1,-1,-1,-1,-1,-1,-1,-1,-1,-1,-1,-1,-1,-1,-1,-1,-1,-1,-1,244,-1,-1,-1,-1,-1,-1,-1,-1,-1,-1,-1,-1,-1,-1,-1,-1,-1,-1,-1,-1,-1,-1,-1,-1,-1,-1,-1,-1,-1,-1,-1,-1,-1,-1,-1,288,-1,-1,-1,-1,-1,-1,-1,-1,-1,-1,-1,-1,-1,302,-1,-1,-1,-1,-1,-1,-1,-1,-1,-1,-1,-1,-1,-1,-1,-1,-1,-1,-1,-1,-1,-1,-1,-1,-1,-1,-1,-1,-1,-1,-1,-1,-1,-1,-1,-1,-1,-1,-1,-1,-1,-1,-1,-1,-1,-1,-1,-1,-1,-1,-1,-1,-1,-1,-1,-1,-1,-1,-1,-1,-1,-1,-1,-1,-1,-1,-1,-1,-1,-1,-1,-1,-1,-1,-1,-1,-1,366,-1,-1,-1,-1,-1,-1,-1,-1,-1,-1,-1,-1,-1,-1,-1,-1,-1,-1,-1,-1,-1,-1,-1,-1,-1,-1,-1,-1,-1,-1,-1,-1,-1,-1,-1,-1,-1,-1,-1,-1,-1,-1,-1,-1,-1,-1,-1,-1,-1,-1,-1,-1,-1,-1,-1,-1,-1,-1,-1,-1,-1,-1,-1,420,-1,-1,-1,-1,-1,-1,-1,-1,-1,-1,-1,-1,-1,-1,-1,-1,-1,-1,-1,-1,-1,-1,-1,-1,-1,-1,-1,-1,-1,-1,-1,-1,-1,-1,-1,-1,-1,-1,-1,-1,-1,-1,-1,-1,-1,-1,-1,-1,-1,-1,-1,-1,-1,-1,-1,-1,-1,-1,-1,-1,-1,-1,-1,-1,-1,-1,-1,-1,-1,-1,-1,-1,-1,-1,-1,-1,-1,-1,-1,-1,-1,-1,-1,-1,-1,-1,-1,-1,-1,-1,-1,-1,-1,-1,-1,-1,-1,-1,-1,-1,-1,-1,-1,-1,-1,-1,-1,-1,-1,-1,-1,-1,-1,-1,-1,-1,-1,-1,-1,-1,-1,-1,-1,-1,-1,-1,-1,-1,-1,-1,-1,-1,-1,-1,-1,-1,-1,-1,-1,-1,-1,-1,-1,-1,-1,-1,-1,-1,-1,-1,-1,-1,-1,-1,-1,-1,-1,-1,-1,-1,-1,-1,-1,-1,-1,-1,-1,-1,-1,-1,-1,-1,-1,-1,-1,-1,-1,-1,-1,-1,-1,-1,-1,-1,-1,-1,-1,-1,-1,-1,-1,-1,-1,-1,-1,-1,-1],"split_conditions":[6.584451E-1,6.305326E-1,6.8371385E-1,1.657943E-1,6.425754E-1,6.7526233E-1,7.1305996E-1,5.500239E-1,-4.3568417E-2,5.339926E-1,3.1725952E-1,7.245265E-1,3.8359266E-2,5.2773863E-1,1.0837551E-1,-1.0979508E-1,-8.124186E-2,-7.151559E-2,-1.1911445E-2,5.26977E-1,1.22916335E-2,6.549938E-1,-4.842396E-2,-3.006396E-4,9.2088974E-1,-7.746257E-2,4.1653536E-2,-3.0688737E-2,5.652636E-1,3.570478E-2,1.0966921E-1,-1.1184148E-1,-3.043463E-2,-3.9185632E-2,-8.801399E-2,-8.540554E-2,-4.396488E-2,7.961633E-2,-3.0393288E-2,5.202346E-1,-7.063015E-2,4.8924614E-2,-2.5598355E-2,5.9672797E-1,-5.1916625E-2,-5.509206E-2,3.1536825E-3,2.7303994E-2,-1.1569984E-2,8.3646417E-1,-5.5809718E-2,4.405781E-2,-2.4714494E-2,5.3769565E-1,1.1961967E-2,5.961977E-2,-2.0027963E-2,4.0558595E-2,1.1070896E-1,-1.1356526E-1,-2.8908955E-2,1.6500136E-2,-7.923128E-2,-6.1552294E-2,4.428923E-2,-5.4766417E-2,-9.312099E-2,-3.0057896E-2,-1.0639366E-1,1.3035266E-2,-8.1637464E-2,-4.6298686E-2,4.849581E-2,-5.98684E-2,1.448175E-1,-1.1021737E-2,-8.053462E-2,6.510867E-1,6.494163E-1,1.2508362E-2,-6.980218E-2,-5.7282686E-2,1.7582556E-2,-2.2491453E-2,4.911325E-2,3.8028542E-2,-2.6407154E-2,1.0126082E-2,-3.251455E-2,7.3000085E-1,6.655072E-2,7.627156E-2,3.824889E-2,5.1552385E-2,5.829973E-1,-2.7658E-2,6.1683264E-2,7.936381E-2,1.1139479E-2,-4.800478E-3,6.481712E-2,-1.1628358E-1,-8.4340796E-2,3.3000924E-2,-7.923128E-2,-8.5699834E-2,2.3302494E-2,8.206717E-2,-1.7375289E-2,-6.408159E-2,1.9245315E-2,-9.602044E-2,-3.6786333E-2,-3.3904256E-3,-9.083151E-2,-7.263999E-2,1.22916335E-2,5.8740187E-1,2.2169912E-2,-3.880653E-2,3.5113547E-2,-8.506692E-2,-7.988029E-3,-3.793748E-2,5.3558905E-2,7.935866E-2,-2.0741237E-2,-8.861684E-2,-5.0480507E-4,-6.255367E-2,-8.640912E-3,-6.134842E-2,1.2006215E-2,1.6069824E-2,7.217064E-2,2.2694921E-2,-6.095215E-2,2.1788873E-2,-5.5530332E-2,-6.1307624E-2,-7.6553957E-3,9.830744E-2,6.722231E-1,8.4192656E-2,8.6976716E-4,2.5564525E-2,1.005009E-1,-4.566374E-3,4.2640716E-2,5.7411388E-2,-5.8707844E-2,-1.536166E-2,7.7537125E-1,2.8280191E-2,-7.7519E-2,-1.1009381E-2,-9.04235E-2,-9.614746E-2,-4.332882E-2,-1.3008712E-2,4.9250826E-2,-7.8432046E-2,-3.2842487E-2,-6.686576E-2,-1.01034515E-1,1.9245315E-2,-6.0592923E-2,3.0407254E-2,-4.4505436E-2,2.8759046E-3,-8.632976E-2,4.8924614E-2,-2.5598355E-2,5.7504094E-1,-8.453446E-2,4.995751E-2,-2.9538816E-2,-7.264039E-2,1.5295971E-2,2.4155315E-3,-8.914748E-2,3.3473294E-2,-4.8826955E-2,-9.190904E-4,1.00412734E-1,1.11445434E-1,1.7397888E-2,-6.41833E-2,2.822202E-2,-4.9392253E-2,-9.502931E-2,-5.13524E-2,3.0682124E-2,3.0194266E-2,-1.3540222E-2,-4.737133E-2,3.220335E-2,9.463777E-2,-2.8576015E-2,-1.6496202E-2,-7.831243E-2,-1.6788105E-2,3.4544744E-2,-9.723714E-2,-9.183728E-4,-7.724552E-2,1.3325669E-4,-5.881072E-2,1.2003953E-2,6.687177E-1,-3.182506E-2,1.06115825E-1,1.786E-2,-7.458604E-2,7.591345E-2,9.667806E-4,4.6995647E-2,6.430761E-2,-4.564424E-2,-3.7781764E-2,4.61778E-2,2.6876898E-2,7.595388E-2,7.650771E-1,8.331264E-2,-1.010248E-1,-2.6679868E-2,-7.526825E-2,2.760799E-3,-4.501539E-3,-5.952127E-2,-8.085884E-2,4.4057327E-3,-1.05015375E-1,-6.645199E-2,-8.014754E-2,-1.1904242E-2,-2.6048867E-2,7.961633E-2,4.8924614E-2,-4.4451572E-2,-1.1030883E-1,-4.658394E-2,-6.659811E-2,4.5964148E-2,7.272264E-2,1.3562758E-2,-9.453175E-2,-1.7135905E-2,7.683393E-2,-1.4182912E-2,-2.5436739E-2,-8.684707E-2,3.903373E-2,-7.599709E-2,-1.2593117E-2,4.6309166E-2,-1.4135108E-2,-8.352848E-2,-1.4695825E-2,5.5551283E-2,-6.257887E-2,-1.0471254E-3,-3.841526E-2,-1.1215201E-1,2.1829258E-3,4.8705332E-2,-1.6088577E-2,-5.6576803E-2,5.0039694E-2,-2.8704021E-2,2.7063217E-2,1.0606808E-1,-4.013403E-2,5.5288855E-2,5.3919476E-2,-7.1032427E-4,1.5130504E-2,-1.6558705E-2,-2.623993E-2,-9.984084E-2,-5.542698E-2,4.6396293E-2,-9.681271E-3,-9.738928E-2,7.724644E-2,1.2357412E-3,-1.2336128E-2,8.357202E-2,-6.353857E-2,4.57199E-2,4.515352E-2,-1.7375289E-2,1.3429982E-2,-8.8113114E-2,7.551615E-2,3.480159E-2,7.608686E-2,-6.732213E-4,5.9569694E-2,1.131235E-1,5.027944E-1,-5.1263034E-2,8.401594E-2,1.1139479E-2,-4.30538E-2,3.2001946E-2,-9.065226E-2,-3.534265E-2,-8.540103E-3,-8.072198E-2,1.3562758E-2,-7.79267E-2,-9.026164E-2,-1.7135905E-2,2.684072E-3,6.832558E-2,1.779922E-2,-4.4451572E-2,-4.756862E-2,1.2565376E-3,-1.5293659E-2,-9.743598E-2,-1.768659E-3,6.192749E-2,-7.032854E-2,-5.4570762E-3,2.4629762E-2,-6.134842E-2,-8.1851095E-2,1.5048021E-2,-1.1433306E-2,6.715367E-2,-5.6576803E-2,1.5023345E-2,4.6344474E-2,-6.699604E-2,7.425245E-2,-7.729842E-3,-4.1353084E-2,2.7042512E-2,4.613527E-2,-5.8382265E-2,-1.1177006E-1,-1.43781975E-2,2.781319E-2,-4.7053155E-2,-5.718265E-2,1.2167235E-2,-4.3149184E-2,1.2135007E-2,9.7688176E-2,1.3473945E-2,-1.4275865E-2,-8.9679256E-2,1.9206043E-2,8.682439E-2,4.437626E-3,5.474207E-2,9.997732E-2,2.0850854E-2,-4.4059414E-2,2.2469066E-2,7.046682E-2,-4.924891E-2,9.996138E-1,7.863752E-2,7.742391E-2,9.8292954E-2,-1.1904242E-2,-4.30538E-2,-1.1904242E-2,-9.482865E-2,1.779922E-2,-4.4451572E-2,-6.0558863E-2,1.5390611E-2,-5.4565843E-2,2.2538675E-2,-4.501956E-2,-9.676871E-2,2.5769416E-2,-4.4663E-2,-2.1936169E-2,7.7938765E-2,9.922769E-2,1.4810453E-2,-9.023495E-2,-6.905302E-4,1.7867444E-2,9.154155E-2,3.193841E-2,-5.6207538E-2,-8.825803E-2,2.679484E-2,7.303327E-2,-4.713624E-2,-8.970366E-2,-5.7522627E-4,6.248241E-2,-9.2324836E-4,-8.7350495E-3,-8.439311E-2,6.8452924E-2,-3.7823923E-2,-1.631161E-2,4.619478E-2,1.2104907E-2,1.00010835E-1,1.6755868E-2,-7.961633E-2,1.2957445E-2,7.834214E-2,-6.604544E-2,-2.2441123E-3,4.7287915E-2,-4.2163216E-2,1.7338412E-2,7.843094E-2,-3.8985264E-2,8.61764E-2,9.091704E-2,2.9738722E-2,9.554784E-2,6.0204014E-2,1.2449945E-2,1.068165E-1,-2.5734333E-2,-9.54748E-2,4.701132E-2,-2.1707004E-2,-1.6788926E-2,-7.86803E-2,-4.87338E-2,-1.1622811E-1,1.7582556E-2,-4.4262085E-2,-2.8576015E-2,4.6028983E-2,5.649652E-2,-2.7907912E-2,1.5119201E-2,9.2125565E-2,-4.2346645E-2,2.6818922E-2,-4.70302E-2,2.2898108E-2,8.7501734E-2,1.4740342E-2,1.4781385E-2,-6.08278E-2,1.11836724E-1,1.4826159E-2,-5.5219088E-2,2.8850682E-2,3.8591895E-2,-4.2012345E-2,1.2086046E-2,9.831875E-2,-1.5113232E-2,7.4911535E-2,4.4607345E-2,-1.7639536E-2,1.3483904E-2,8.35401E-2,1.4565166E-2,-8.229175E-2,-1.4868612E-2,5.6298222E-2,9.972749E-2,-3.695367E-3,-4.620549E-3,6.50014E-2,-1.7169358E-2,4.309785E-2,-6.0269676E-2,1.1402988E-2,2.3764438E-5,8.458699E-2,-3.9626524E-2,2.0237794E-2,-2.5828416E-2,-9.055229E-2,1.7582556E-2,-7.743966E-2,-8.420563E-2,-3.452148E-4,5.465887E-2,-2.060678E-2,-7.800041E-2,-1.6607549E-2,7.2848044E-2,-1.0489697E-2,8.5566886E-2,-1.8071452E-2,-7.961633E-2,1.4293177E-2,5.075059E-2,-4.912606E-2,9.4381414E-2,1.3483904E-2,1.2150917E-2,1.02487475E-1,4.329544E-2,-4.2148396E-2,1.8236168E-2,7.0906624E-2,2.7289335E-3,-8.6813904E-2,-1.04174595E-2,4.8705332E-2,-1.6646188E-2,1.6110584E-2,3.0080095E-4,7.787185E-2,1.4613215E-2,-4.6669353E-2,9.2852026E-2,1.1824103E-2,-4.759806E-2,4.4272494E-2,2.8609987E-2,-5.7512652E-2,1.0540313E-1,1.2884343E-2,7.1220875E-2,-3.2557428E-2,1.9093389E-2,8.097961E-2,4.0513504E-2,-4.4663E-2,1.4887628E-2,-7.084093E-2,5.535034E-2,1.2255615E-2,1.1587095E-1,7.734467E-2,-5.0138123E-2,-3.695367E-3,6.598373E-2,-1.1348238E-2,8.352638E-2,1.2150917E-2,8.7921E-2,8.823327E-3,4.402221E-2,-3.9671306E-2,9.141144E-2,3.3200968E-2,-1.6662534E-2,-5.0138123E-2,1.04713984E-1,5.685152E-2,-3.6615584E-2,9.278817E-2,3.4309186E-2,1.1073576E-1,8.823327E-3,6.72224E-2,1.5627403E-2,9.1071606E-2,4.329544E-2,-1.8993603E-2],"split_indices":[0,0,0,1,0,0,0,3,4,2,4,4,3,2,4,4,0,2147483647,2147483647,2,2,0,2,4,4,2147483647,2147483647,0,2,2147483647,2147483647,2147483647,2147483647,2147483647,2147483647,2147483647,2147483647,2147483647,2147483647,2,0,2147483647,2147483647,3,4,2147483647,2147483647,2147483647,2147483647,4,0,2147483647,2147483647,2,0,2147483647,2147483647,2147483647,2147483647,2147483647,2147483647,2147483647,2147483647,2147483647,2147483647,2147483647,2147483647,2147483647,2147483647,2147483647,2147483647,2147483647,2147483647,3,1,2147483647,2147483647,0,0,2147483647,2147483647,2147483647,2147483647,2147483647,2147483647,2147483647,2147483647,2147483647,2147483647,4,1,2147483647,2147483647,2,3,2147483647,2147483647,2147483647,2147483647,2147483647,2147483647,2147483647,2147483647,2147483647,2147483647,2147483647,2147483647,2147483647,2147483647,2147483647,2147483647,2147483647,2147483647,2147483647,2147483647,2147483647,2147483647,3,0,2147483647,2147483647,2147483647,2147483647,2,4,3,3,2147483647,2147483647,2147483647,2147483647,2147483647,2147483647,2147483647,2147483647,2147483647,2147483647,2147483647,2147483647,2147483647,2147483647,0,0,2147483647,2147483647,2147483647,2147483647,2147483647,2147483647,2147483647,2147483647,0,4,2147483647,2147483647,2147483647,2147483647,2147483647,2147483647,2147483647,2147483647,2147483647,2147483647,2147483647,2147483647,2147483647,2147483647,2147483647,2147483647,2147483647,2147483647,2147483647,2147483647,3,0,2147483647,2147483647,2147483647,2147483647,2147483647,2147483647,2147483647,2147483647,2147483647,2147483647,2147483647,2147483647,2147483647,2147483647,2147483647,2147483647,2147483647,2147483647,2147483647,2147483647,2147483647,2147483647,2147483647,2147483647,2147483647,2147483647,2147483647,2147483647,2147483647,2147483647,2147483647,2147483647,2147483647,2147483647,0,1,2147483647,2147483647,2147483647,2147483647,2147483647,2147483647,2147483647,2147483647,2147483647,2147483647,2147483647,2147483647,4,0,2147483647,2147483647,2147483647,2147483647,2147483647,2147483647,2147483647,2147483647,2147483647,2147483647,2147483647,2147483647,2147483647,2147483647,2147483647,2147483647,2147483647,2147483647,2,4,2147483647,2147483647,2147483647,2147483647,2147483647,2147483647,2147483647,2147483647,2147483647,2147483647,2147483647,2147483647,2147483647,2147483647,2147483647,2147483647,2147483647,2147483647,2147483647,2147483647,2147483647,2147483647,2147483647,2147483647,2147483647,2147483647,2147483647,2147483647,2147483647,2147483647,2147483647,2147483647,2147483647,2147483647,2147483647,2147483647,2147483647,2147483647,2147483647,2147483647,2147483647,2147483647,2,1,2147483647,2147483647,2147483647,2147483647,2147483647,2147483647,2147483647,2147483647,2147483647,2147483647,2147483647,2147483647,4,0,2147483647,2147483647,2147483647,2147483647,2147483647,2147483647,2147483647,2147483647,2147483647,2147483647,2147483647,2147483647,2147483647,2147483647,2147483647,2147483647,2147483647,2147483647,2147483647,2147483647,2147483647,2147483647,2147483647,2147483647,2147483647,2147483647,2147483647,2147483647,2147483647,2147483647,2147483647,2147483647,2147483647,2147483647,2147483647,2147483647,2147483647,2147483647,2147483647,2147483647,2147483647,2147483647,2147483647,2147483647,2147483647,2147483647,2147483647,2147483647,2147483647,2147483647,2147483647,2147483647,2147483647,2147483647,2147483647,2147483647,2147483647,2147483647,2147483647,2147483647,2147483647,2147483647,1,0,2147483647,2147483647,2147483647,2147483647,2147483647,2147483647,2147483647,2147483647,2147483647,2147483647,2147483647,2147483647,2147483647,2147483647,2147483647,2147483647,2147483647,2147483647,2147483647,2147483647,2147483647,2147483647,2147483647,2147483647,2147483647,2147483647,2147483647,2147483647,2147483647,2147483647,2147483647,2147483647,2147483647,2147483647,2147483647,2147483647,2147483647,2147483647,2147483647,2147483647,2147483647,2147483647,2147483647,2147483647,2147483647,2147483647,2147483647,2147483647,2147483647,2147483647,2147483647,2147483647,4,0,2147483647,2147483647,2147483647,2147483647,2147483647,2147483647,2147483647,2147483647,2147483647,2147483647,2147483647,2147483647,2147483647,2147483647,2147483647,2147483647,2147483647,2147483647,2147483647,2147483647,2147483647,2147483647,2147483647,2147483647,2147483647,2147483647,2147483647,2147483647,2147483647,2147483647,2147483647,2147483647,2147483647,2147483647,2147483647,2147483647,2147483647,2147483647,2147483647,2147483647,2147483647,2147483647,2147483647,2147483647,2147483647,2147483647,2147483647,2147483647,2147483647,2147483647,2147483647,2147483647,2147483647,2147483647,2147483647,2147483647,2147483647,2147483647,2147483647,2147483647,2147483647,2147483647,2147483647,2147483647,2147483647,2147483647,2147483647,2147483647,2147483647,2147483647,2147483647,2147483647,2147483647,2147483647,2147483647,2147483647,2147483647,2147483647,2147483647,2147483647,2147483647,2147483647,2147483647,2147483647,2147483647,2147483647,2147483647,2147483647,2147483647,2147483647,2147483647,2147483647,2147483647,2147483647,2147483647,2147483647,2147483647,2147483647,2147483647,2147483647,2147483647,2147483647,2147483647,2147483647,2147483647,2147483647,2147483647,2147483647,2147483647,2147483647,2147483647,2147483647,2147483647,2147483647,2147483647,2147483647,2147483647,2147483647,2147483647,2147483647,2147483647,2147483647,2147483647,2147483647,2147483647,2147483647,2147483647,2147483647,2147483647,2147483647,2147483647,2147483647,2147483647,2147483647,2147483647,2147483647,2147483647,2147483647,2147483647,2147483647,2147483647,2147483647],"split_type":[0,0,0,0,0,0,0,0,0,0,0,0,0,0,0,0,0,0,0,0,0,0,0,0,0,0,0,0,0,0,0,0,0,0,0,0,0,0,0,0,0,0,0,0,0,0,0,0,0,0,0,0,0,0,0,0,0,0,0,0,0,0,0,0,0,0,0,0,0,0,0,0,0,0,0,0,0,0,0,0,0,0,0,0,0,0,0,0,0,0,0,0,0,0,0,0,0,0,0,0,0,0,0,0,0,0,0,0,0,0,0,0,0,0,0,0,0,0,0,0,0,0,0,0,0,0,0,0,0,0,0,0,0,0,0,0,0,0,0,0,0,0,0,0,0,0,0,0,0,0,0,0,0,0,0,0,0,0,0,0,0,0,0,0,0,0,0,0,0,0,0,0,0,0,0,0,0,0,0,0,0,0,0,0,0,0,0,0,0,0,0,0,0,0,0,0,0,0,0,0,0,0,0,0,0,0,0,0,0,0,0,0,0,0,0,0,0,0,0,0,0,0,0,0,0,0,0,0,0,0,0,0,0,0,0,0,0,0,0,0,0,0,0,0,0,0,0,0,0,0,0,0,0,0,0,0,0,0,0,0,0,0,0,0,0,0,0,0,0,0,0,0,0,0,0,0,0,0,0,0,0,0,0,0,0,0,0,0,0,0,0,0,0,0,0,0,0,0,0,0,0,0,0,0,0,0,0,0,0,0,0,0,0,0,0,0,0,0,0,0,0,0,0,0,0,0,0,0,0,0,0,0,0,0,0,0,0,0,0,0,0,0,0,0,0,0,0,0,0,0,0,0,0,0,0,0,0,0,0,0,0,0,0,0,0,0,0,0,0,0,0,0,0,0,0,0,0,0,0,0,0,0,0,0,0,0,0,0,0,0,0,0,0,0,0,0,0,0,0,0,0,0,0,0,0,0,0,0,0,0,0,0,0,0,0,0,0,0,0,0,0,0,0,0,0,0,0,0,0,0,0,0,0,0,0,0,0,0,0,0,0,0,0,0,0,0,0,0,0,0,0,0,0,0,0,0,0,0,0,0,0,0,0,0,0,0,0,0,0,0,0,0,0,0,0,0,0,0,0,0,0,0,0,0,0,0,0,0,0,0,0,0,0,0,0,0,0,0,0,0,0,0,0,0,0,0,0,0,0,0,0,0,0,0,0,0,0,0,0,0,0,0,0,0,0,0,0,0,0,0,0,0,0,0,0,0,0,0,0,0,0,0,0,0,0,0,0,0,0,0,0,0,0,0,0,0,0,0,0,0,0,0,0],"sum_hessian":[1.0308666E3,4.4144052E2,5.8942615E2,2.4833691E2,1.9310359E2,2.0389838E2,3.8552774E2,2.2684862E2,2.1488297E1,8.2931435E1,1.10172165E2,1.3619484E2,6.7703545E1,1.8617839E2,1.9934935E2,1.3279053E2,9.405808E1,1.0744148E1,1.0744148E1,8.01837E1,2.747728E0,5.3960125E1,5.621204E1,9.9722786E1,3.6472054E1,1.249751E0,6.645379E1,1.4982953E0,1.846801E2,3.986987E0,1.9536237E2,1.2905347E2,3.7370694E0,1.3986366E1,8.007172E1,5.74687E0,4.997278E0,1.2493196E0,9.494829E0,3.8468193E1,4.171551E1,1.2489674E0,1.4987608E0,4.6214626E1,7.7454977E0,4.9716427E1,6.4956136E0,2.8496588E1,7.12262E1,3.4972958E1,1.4990934E0,6.445498E1,1.998811E0,1.8018257E2,4.497518E0,2.7410536E0,1.2459335E0,3.4886136E0,1.9187375E2,1.26063805E2,2.9896555E0,2.2422416E0,1.4948277E0,1.1237863E1,2.7485032E0,1.2222786E1,6.784893E1,2.2487752E0,3.498095E0,2.2487752E0,2.7485032E0,8.245509E0,1.2493196E0,1.8234922E1,2.023327E1,6.244837E0,3.5470673E1,3.3474636E1,1.273999E1,1.7483749E0,5.997123E0,4.846727E1,1.2491565E0,4.496963E0,1.9986503E0,2.3997059E1,4.4995294E0,3.5239166E1,3.5987034E1,2.4232004E1,1.0740955E1,7.993943E0,5.6461037E1,3.871475E1,1.4146783E2,2.7499692E0,1.7475489E0,1.4951202E0,1.2459335E0,1.4951202E0,1.9934936E0,1.1261035E2,1.3453449E1,1.4948277E0,1.4948277E0,8.740561E0,2.497303E0,1.4991837E0,1.2493197E0,1.0975563E1,1.247223E0,6.385782E1,3.9911137E0,4.7474146E0,3.498095E0,1.5487195E1,2.747728E0,1.3738641E1,6.4946303E0,3.9966955E0,2.2481413E0,3.322253E1,2.2481413E0,2.47293E1,8.7453375E0,7.24418E0,5.4958105E0,4.49729E0,1.4998325E0,4.3470646E1,4.996626E0,1.748819E0,2.7481441E0,1.5499273E1,8.497786E0,1.9999062E0,2.4996233E0,3.0491062E1,4.748102E0,1.5994838E1,1.9992195E1,2.4978797E0,2.1734125E1,8.244606E0,2.4963493E0,3.2491813E0,4.744762E0,5.249054E0,5.1211983E1,3.721645E1,1.4982953E0,1.2488805E0,1.4021895E2,1.4999833E0,1.249986E0,1.2456897E0,1.220776E1,5.993527E0,2.747033E0,1.2486515E0,1.2486515E0,6.4855595E0,4.4900026E0,1.1474452E1,5.2383366E1,1.247223E0,2.7438908E0,2.7485032E0,1.9989114E0,2.4979348E0,1.2989261E1,1.2489674E0,1.4987608E0,1.0741119E1,2.9975216E0,4.246489E0,2.2481413E0,2.2481413E0,1.7485542E0,1.4987608E0,3.172377E1,2.9976254E0,2.1731674E1,4.496981E0,4.248356E0,4.2464724E0,2.9977076E0,2.7473824E0,2.748428E0,3.2727898E1,1.0742745E1,2.2484815E0,2.7481441E0,1.4989877E0,1.2491565E0,2.749871E0,1.2749402E1,6.997856E0,1.4999297E0,1.249682E0,1.2499413E0,7.4982758E0,2.2992786E1,2.2495923E0,2.49851E0,1.2496092E1,3.4987462E0,4.9973006E0,1.4994895E1,1.6988953E1,4.7451725E0,5.7458363E0,2.49877E0,1.2477975E0,1.2485517E0,1.9994303E0,1.249751E0,1.7497678E0,3.4992862E0,1.7496077E0,4.9462376E1,1.4986763E1,2.2229689E1,2.7953062E1,1.1226589E2,9.965518E0,2.2422416E0,1.2486515E0,1.4983817E0,2.7438908E0,1.7461122E0,9.478895E0,1.9955568E0,4.5149475E1,7.2338934E0,1.4966676E0,1.247223E0,1.4991835E0,1.2493196E0,1.2489674E0,1.2489674E0,6.994217E0,5.9950433E0,5.9950433E0,4.746076E0,1.9983478E0,2.2481413E0,2.9225836E1,2.4979348E0,1.2489747E0,1.7486508E0,1.448775E1,7.243924E0,3.2484221E0,1.2485592E0,1.7484164E0,1.2492913E0,1.2483742E0,1.499008E0,1.2491041E0,1.4993241E0,2.5482792E1,7.245107E0,3.2478068E0,7.494939E0,1.4989877E0,1.2491565E0,1.2499413E0,1.4999297E0,9.999531E0,2.749871E0,1.4996703E0,5.498186E0,5.9985175E0,1.4997582E0,1.4496628E1,8.49616E0,1.2492377E0,1.2492722E0,4.4997888E0,7.996303E0,1.4996442E0,1.999102E0,2.7483068E0,2.2489939E0,1.2496921E0,1.3745203E1,1.1494041E1,5.4949102E0,3.4960272E0,1.2491452E0,1.2494503E0,1.2493197E0,1.7494999E0,1.7497863E0,1.2245114E1,3.7217262E1,4.7466125E0,1.024015E1,1.7235159E1,4.9945292E0,2.5704693E1,2.2483697E0,1.1101996E2,1.2459335E0,1.247223E0,1.4966676E0,6.984449E0,2.494446E0,1.7461122E0,5.4877815E0,2.2481413E0,3.746902E0,3.4971085E0,2.4979348E0,1.9983478E0,2.747728E0,1.2489674E0,1.2489674E0,7.4930673E0,6.994683E0,1.248904E0,5.9950204E0,1.499207E0,1.749215E0,2.2234985E1,3.2478068E0,5.4962883E0,1.748819E0,1.4989877E0,1.748819E0,2.2498944E0,7.7496367E0,1.4999297E0,1.2499413E0,1.2497716E0,4.748746E0,1.0747493E1,3.7491353E0,3.2486343E0,5.2475247E0,1.2499413E0,3.2498477E0,6.7467422E0,1.2495607E0,1.4995801E0,1.2487265E0,1.499706E0,1.2245497E1,4.7498965E0,6.744145E0,4.246225E0,1.2486856E0,1.7479997E0,1.7480276E0,2.4990993E0,9.746015E0,1.5237385E1,2.1979877E1,2.748039E0,1.9985738E0,3.2476823E0,6.992468E0,1.5986685E1,1.2484736E0,7.988737E0,1.7715956E1,8.034553E1,3.0674427E1,1.247223E0,1.247223E0,1.247223E0,4.240558E0,1.2489674E0,1.2489674E0,6.243073E0,1.2499944E0,1.4989796E0,5.495703E0,1.2741396E1,9.493589E0,1.9986503E0,1.2491565E0,3.2478068E0,2.2484815E0,4.2498007E0,3.4998357E0,3.2490978E0,1.4996481E0,2.9993038E0,7.748189E0,2.24955E0,1.4995852E0,1.7494353E0,1.4991989E0,3.2487469E0,1.998778E0,1.7499179E0,1.4999297E0,1.7491742E0,1.0496323E1,3.2499292E0,1.4999673E0,2.99629E0,3.7478547E0,1.2498668E0,1.2492323E0,1.7496736E0,7.996341E0,1.3988065E1,1.2493197E0,8.492571E0,1.3487307E1,1.7487521E0,1.4989303E0,5.2462564E0,1.746212E0,2.498217E0,1.3488468E1,3.2486227E0,4.740114E0,1.3473248E1,4.2427077E0,3.692904E1,4.341649E1,2.992885E0,2.7681543E1,3.9952846E0,2.2477884E0,3.4982734E0,1.9974301E0,7.74477E0,4.996626E0,3.7474694E0,5.7461195E0,1.2491565E0,1.9986503E0,1.4999297E0,1.9999062E0,1.4996018E0,1.499702E0,1.2497344E0,1.9990125E0,3.9989014E0,6.4974217E0,1.2499728E0,1.9999565E0,1.7474833E0,1.2488068E0,1.2490239E0,2.4988308E0,6.746829E0,1.2495123E0,1.4994543E0,1.2488611E1,5.9948792E0,2.4976912E0,3.4962757E0,9.991031E0,1.7487521E0,3.4975042E0,1.2491086E0,1.2491086E0,1.2491086E0,1.2239359E1,1.7492584E0,1.4993644E0,1.7476552E0,2.4950528E0,3.5431934E1,1.4971037E0,2.9942074E0,4.042228E1,1.7456293E0,1.2472558E0,1.7474141E0,2.2478704E0,1.9990886E0,1.4991846E0,4.7467947E0,2.9979753E0,1.4989877E0,3.497638E0,1.2491565E0,2.498313E0,1.4995801E0,2.4993212E0,3.997994E0,2.4994278E0,1.2496363E0,1.2491945E0,5.493297E0,6.9953136E0,2.998759E0,2.9961202E0,1.2493197E0,1.2483715E0,2.2475314E0,1.2487442E0,2.2483954E0,1.2491086E0,1.2475865E0,3.418435E1,1.2475865E0,1.746621E0,4.990346E0,3.5431934E1,2.9979753E0,1.748819E0,1.748819E0,1.2491565E0,1.249755E0,1.2495662E0,1.4995172E0,2.4984765E0,1.2497985E0,1.2496291E0,3.744321E0,1.7489761E0,4.2477465E0,2.7475672E0,1.4978848E0,1.4982355E0,3.2936283E1,1.2480664E0,2.2456555E0,2.7446902E0,6.2384124E0,2.9193523E1,1.748819E0,1.2491565E0,1.2491176E0,2.9986286E0,1.4998367E0,1.2477304E0,2.1708004E1,1.1228278E1,1.2475865E0,1.4971037E0,1.9961383E0,4.242274E0,2.7945936E1,1.2475865E0,9.481657E0,1.746621E0,1.2480664E0,2.9942074E0,2.3454626E1,4.491311E0,1.746621E0,1.2475865E0,1.5470072E1,7.9845533E0,2.2456555E0,2.2456555E0,1.746621E0,1.3723451E1,1.746621E0,6.237932E0,2.495173E0,3.7427595E0,1.2475865E0,1.2475865E0],"tree_param":{"num_deleted":"496","num_feature":"5","num_nodes":"563","size_leaf_vector":"0"}},{"base_weights":[9.7517215E-2,-9.380428E-1,8.7322664E-1,-1.3339055E0,-6.0256225E-1,2.4724177E-1,1.2048717E0,-1.3724782E0,-6.567977E-2,-7.9066503E-1,-3.793977E-1,1.428883E-1,5.9308565E-1,9.052135E-1,1.4308653E0,-1.4809813E0,-1.1175381E0,-7.077989E-1,3.8760135E-1,-8.2296425E-1,8.886965E-2,-1.09684475E-1,-6.3332397E-1,3.643101E-2,4.3105575E-1,3.948791E-1,8.219974E-1,9.321492E-1,-1.0633187E-1,6.808714E-1,1.4652201E0,-1.5109677E0,-2.7105734E-1,-5.090875E-1,-1.2862452E0,7.2776884E-1,-1.24596044E-1,-7.610317E-1,-1.6630179E0,5.7781804E-1,-7.2911435E-1,6.887533E-1,-1.9370018E-1,-7.2685397E-1,8.712062E-2,7.723318E-2,-9.4423056E-1,-1.1280464E0,5.052639E-1,7.0165765E-1,-5.92312E-1,-5.59154E-2,1.0650152E0,6.6546714E-1,1.0046128E0,6.5591013E-1,-5.084776E-1,9.168711E-1,-5.343158E-1,5.0203663E-1,1.4791361E0,-1.5669216E0,-1.1021603E0,3.1336436E-1,-9.9239844E-1,-8.3022696E-1,6.921709E-1,-9.307361E-1,-1.4401929E0,-8.782608E-1,-2.2194311E-1,8.591278E-1,6.4842224E-2,1.1567624E0,-1.9952904E-1,-2.8874487E-1,5.3226817E-1,-5.874218E-1,-1.0795873E0,-2.8214955E-1,7.347685E-1,4.0243343E-1,-5.1689513E-2,-1.1203609E0,-2.500189E-1,5.6007415E-1,-6.995294E-1,8.730282E-1,-5.1532006E-1,-1.3905977E0,7.943189E-2,7.2612846E-1,-8.207425E-1,3.2193798E-1,1.3829904E0,7.32597E-1,-7.2604096E-1,6.827659E-1,1.0873883E0,-1.122163E0,1.7844926E-1,2.0962471E-1,1.0675219E0,9.353588E-1,-3.4773904E-1,1.1999829E0,1.5235827E0,-1.2072659E0,8.162501E-2,-1.1749805E0,3.920008E-1,1.2209619E0,-2.0304942E-1,-1.3627656E0,-6.483315E-1,-7.6170015E-1,-1.4965799E0,-9.440547E-1,-4.0042922E-1,2.53229E-1,-6.590603E-1,-4.7260177E-1,6.519846E-2,1.2972713E0,-1.3269946E-1,-7.795229E-1,2.8152725E-1,-1.3995749E0,-5.316429E-1,-8.466158E-1,2.0727241E-1,2.870641E-1,1.3441349E0,-4.987642E-1,1.2584953E-1,6.787127E-1,-4.8720915E-2,1.0459803E0,-3.6674306E-2,-6.35343E-1,5.166541E-1,8.694235E-1,-8.461131E-1,-2.4145542E-1,7.882271E-1,8.268301E-1,-6.978618E-1,1.2751666E0,9.2248774E-1,4.1083623E-2,1.3477119E0,1.15084246E-1,1.2390754E0,-9.713615E-2,-1.2851485E0,-1.3297795E0,-5.613067E-1,-1.4114836E-1,7.5040513E-1,1.1963201E-1,-8.522716E-1,-1.0999823E0,-2.2470245E-1,-6.6849256E-1,-1.1838562E0,1.27315E-1,-6.776618E-1,-5.80476E-1,9.8301625E-1,-8.8548446E-1,7.1446276E-1,-1.4661884E-1,-9.083039E-1,8.5639685E-1,-2.7920341E-1,-8.058897E-1,5.276456E-1,-8.629267E-1,2.2367735E-1,1.1483644E0,-2.8214955E-1,-1.572581E0,-6.008043E-1,6.1026156E-1,-1.0808531E0,4.6087834E-1,-1.6673039E-1,1.2642394E0,1.8177746E-1,1.7108461E-1,-1.1549733E0,-4.108881E-2,4.2312068E-1,-2.2619938E-2,8.1616795E-1,1.056476E0,-4.38512E-1,3.94627E-1,1.2861953E0,-1.1961575E0,1.139724E0,6.4597E-1,1.5714522E-1,1.0719936E0,1.6737638E-1,-2.7169597E-1,8.3557E-1,8.910304E-1,-2.5739828E-1,1.3410841E0,3.575637E-2,-1.2883124E-1,9.835721E-1,1.2781328E0,2.6898703E-1,-5.709194E-1,-1.5093206E0,-1.0327018E0,8.8300385E-2,-1.3485712E-1,3.208839E-1,-1.0067991E0,-7.8437336E-2,4.2074546E-1,-7.4842024E-1,-1.2544806E0,-4.9560958E-1,8.890272E-1,-3.8165998E-1,-8.593606E-1,2.4740386E-1,-8.6668783E-1,2.8178883E-1,1.2579422E0,3.9759178E-2,-3.1367865E-1,-1.3738223E0,-2.7385837E-1,7.761791E-1,-2.5346488E-1,-1.1526769E0,2.792809E-1,1.2791979E0,-7.0429355E-1,1.403014E-1,-3.486359E-1,-1.077899E0,2.0727241E-1,-8.466158E-1,-1.6673039E-1,-1.3593675E0,-3.7426315E-2,6.547863E-1,-7.971098E-1,3.7562168E-1,-1.336829E0,2.2703993E-1,1.7011626E-1,-8.808149E-1,9.2135847E-1,7.531792E-2,6.485751E-1,-6.8778574E-1,9.6537405E-1,3.8947147E-1,6.42327E-1,-8.3711153E-1,1.0974003E0,-4.8302832E-1,1.4398078E0,5.945331E-1,1.1089226E0,5.8550584E-1,-5.234381E-2,9.7454715E-1,1.2783204E-1,1.3753431E0,5.7408535E-1,-6.5721923E-1,4.4919816E-1,1.0809163E0,5.073014E-1,1.3598137E0,-2.2470245E-1,-1.220753E0,-1.2546189E-1,7.7956694E-1,-1.0664302E0,-3.8951787E-1,-1.3240095E0,-5.5136055E-1,2.9934984E-1,-7.830081E-1,-8.169338E-1,3.208839E-1,-2.4870841E-1,-1.0282092E0,-1.0708746E0,-1.6336657E-1,1.513693E0,2.71843E-1,3.9487454E-1,-7.4037296E-1,-5.9009653E-1,1.8025926E-1,2.4402712E-1,-6.2490827E-1,-5.393796E-1,-1.5351595E0,-2.2966956E-1,6.640198E-1,-1.1230423E-1,-1.307995E0,4.3369067E-1,-6.7175925E-1,9.7713906E-1,-7.3666024E-1,-5.35381E-1,-1.2781446E0,-3.403308E-1,7.234023E-1,7.0283145E-1,-3.984364E-1,1.2618142E0,-2.3264855E-1,9.3522394E-1,-3.5420558E-1,-1.5298047E0,-3.2833973E-1,2.8035718E-1,-9.888593E-1,2.3294902E-1,-1.1216583E0,1.3535932E0,-3.5743126E-1,-3.7011212E-1,6.692956E-1,2.0757747E-1,7.86011E-1,-8.2613033E-1,-2.2840333E-1,4.8956344E-1,1.1546029E0,9.368294E-1,-2.353047E-1,1.9579324E-1,-1.2338051E0,1.1388495E0,-2.746858E-1,1.1813643E0,1.732987E-1,6.8791725E-2,9.501062E-1,1.2333058E0,6.8588334E-1,1.4142627E0,7.095828E-1,-2.4967866E-1,8.2254916E-1,1.2254431E-1,1.1468129E0,1.1445855E0,-3.154105E-1,1.5215236E0,9.762502E-1,-5.1458204E-1,-1.3834928E0,-9.104563E-1,-5.6688096E-3,-1.4172093E0,-9.110706E-1,-8.65851E-2,-7.5843555E-1,-1.1130011E0,-2.4643375E-1,-1.2377529E0,-1.5148036E-1,-1.1002973E-1,-1.1368467E0,-1.2399863E0,2.6346272E-1,1.2455926E0,-4.06326E-1,-8.7696886E-1,2.6294953E-1,3.9776286E-1,-5.351366E-1,-4.577587E-1,1.1375458E0,-9.159994E-1,6.0273763E-2,-8.287289E-1,2.4604225E-1,-6.589627E-1,-1.4363264E0,1.2351452E-1,1.0486164E0,-8.1164044E-1,5.285173E-2,1.4900041E0,3.9197364E-1,-6.7561674E-1,3.9197364E-1,1.7001769E-1,1.30026E0,6.719609E-1,-8.1417567E-1,-1.6908636E0,-5.6320417E-1,4.083268E-1,-1.0073351E0,-1.5504106E0,-1.820095E-1,6.5134853E-1,-6.363695E-1,-2.0292683E-1,1.0542545E0,-1.4039692E-1,1.157251E0,1.4233037E0,7.1733767E-1,-2.709652E-1,1.4114267E0,-8.1317973E-1,2.4515823E-1,8.317421E-1,1.5540514E0,5.1723605E-1,-3.7144175E-1,-7.004657E-2,1.1722044E0,-4.8344795E-2,9.0575856E-1,-8.0681846E-2,1.1694438E0,7.3446E-2,-5.047105E-1,1.2406979E0,-1.1444669E-1,7.005659E-1,-5.047105E-1,1.1750783E0,1.2783204E-1,4.334452E-2,1.15252E0,-8.125045E-1,7.3475516E-1,-1.484076E0,-5.778962E-1,-1.2676716E0,-3.10081E-1,4.221484E-1,-6.281856E-1,-1.4623144E0,-5.7164E-1,-1.8850915E-1,-1.1504358E0,-1.0327101E0,-1.4628495E-1,-1.4694725E0,-3.300977E-1,8.4323037E-1,-5.705047E-1,6.234769E-1,-1.1224993E0,-1.788796E-1,-1.1540468E0,-1.1817709E-1,-1.1592567E0,-1.3956842E0,2.4604225E-1,6.0273763E-2,-1.0092388E0,-6.741251E-1,7.9198444E-1,-1.2489841E0,1.445773E-1,4.5022148E-1,-1.1185806E0,-1.2711703E0,1.4277893E-2,7.4338935E-2,8.0189025E-1,-9.258529E-1,1.7369416E-1,1.318589E0,2.0448038E-1,6.317281E-1,-9.313441E-1,9.636511E-1,1.1746888E-1,6.4545965E-1,-2.6463747E-1,1.326884E0,2.0126168E-1,8.581538E-1,-2.809165E-1,-1.2650135E0,3.2374287E-1,1.4158467E0,5.8634955E-1,-6.227114E-1,4.409321E-1,3.2483464E-1,1.0752666E0,9.355376E-1,1.4431907E0,1.9932842E-1,1.3961343E0,1.2985949E-1,-1.1621956E0,3.208839E-1,-6.514446E-1,9.7088367E-1,-5.040718E-2,-1.1551092E0,4.6549407E-1,3.0472693E-1,-5.9736824E-1,-1.4073709E0,-5.685201E-1,-1.6673039E-1,-1.4274644E0,9.893197E-1,-8.080587E-1,-6.257889E-1,4.1803652E-1,1.1807692E0,2.1887566E-1,-1.8691085E-1,-1.3794032E0,1.5125781E-1,1.3543828E0,5.9094834E-1,-4.6369138E-1,3.3763072E-1,1.0544568E0,7.3829174E-1,-2.809165E-1,-2.809165E-1,1.0062313E0,7.260942E-1,-2.652895E-1,1.3342494E0,2.4104379E-1,1.0528092E0,-5.047105E-1,4.387786E-1,1.5280354E0,-1.421919E0,-1.2546189E-1,-8.45684E-1,5.8787096E-1,2.9397705E-1,-1.1173346E0,-8.037116E-3,1.4190491E0,1.6931175E-1,-1.015777E0,8.7425977E-1,-2.9144529E-1,2.1456951E-1,1.3396863E0,1.0910903E0,-2.1745454E-1,7.3829174E-1,1.6420795E-1,1.1626406E0,3.575637E-2,-1.2830241E0,-2.3763508E-1,1.0640241E0,1.7700745E-1,-7.5447357E-1,6.6152495E-1,-9.211891E-1,4.451156E-1,1.6454682E-1,1.2920032E0,2.1233386E-1,1.2647337E0,-9.165443E-1,-2.2093248E-1,5.7408535E-1,-3.1842124E-1,2.9880708E-1,1.364019E0],"categories":[],"categories_nodes":[],"categories_segments":[],"categories_sizes":[],"default_left":[1,1,1,1,1,1,1,1,1,1,1,1,1,1,1,1,1,1,1,1,1,1,1,1,1,1,1,1,1,1,1,1,1,1,1,1,1,1,0,1,1,1,1,1,1,1,1,1,1,1,1,1,1,1,1,1,1,1,1,1,1,1,1,1,1,1,1,1,1,1,1,1,1,1,1,1,1,1,1,1,1,1,1,1,1,1,1,1,1,1,1,1,1,1,1,1,1,1,1,1,1,1,1,1,1,1,1,1,1,1,1,1,1,1,1,1,1,1,1,1,1,1,1,1,1,1,1,1,1,1,1,1,1,1,1,1,1,1,1,1,1,1,1,1,1,1,1,1,1,1,1,1,1,1,1,1,1,1,1,1,1,1,1,1,1,1,1,1,1,1,1,1,1,1,1,1,1,1,1,1,1,1,1,1,1,1,1,1,1,1,1,1,1,1,1,1,1,1,1,1,1,1,1,1,1,1,1,1,1,1,1,1,1,1,1,1,1,1,1,1,1,1,1,1,1,1,1,1,1,1,1,1,1,1,1,1,1,1,1,1,1,1,1,1,1,1,1,1,1,1,1,1,1,1,1,1,1,1,1,1,1,1,1,1,1,1,1,1,1,1,1,1,1,1,1,1,1,1,1,1,1,1,1,1,1,1,1,1,1,1,1,1,1,1,1,1,1,1,1,1,1,1,1,1,1,1,1,1,1,1,1,1,1,1,1,1,1,1,1,1,1,1,1,1,1,1,1,1,1,1,1,1,1,1,1,1,1,1,1,1,1,1,1,1,1,1,1,1,1,1,1,1,1,1,1,1,1,1,1,1,1,1,1,1,1,1,1,1,1,1,1,1,1,1,1,1,1,1,1,1,1,1,1,1,1,1,1,1,1,1,1,1,1,1,1,1,1,1,1,1,1,1,1,1,1,1,1,1,1,1,1,1,1,1,1,1,1,1,1,1,1,1,1,1,1,1,1,1,1,1,1,1,1,1,1,1,1,1,1,1,1,1,1,1,1,1,1,1,1,1,1,1,1,1,1,1,1,1,1,1,1,1,1,1,1,1,1,1,1,1,1,1,1,1,1,1,1,1,1,1,1,1,1,1,1,1,1,1,1,1,1,1,1,1,1,1,1,1,1,1,1,1,1,1,1,1,1,1,1,1,1,1,1,1,1,1,1,1,1,1,1,1,1,1,1,1,1,1,1,1,1,1,1,1,1,1,1,1,1,1,1,1,1,1,1,1,1,1,1,1,1,1,1,1,1,1,1,1,1,1,1,1,1,1,1,1,1,1,1,1,1,1,1,1,1,1,1,1,1,1,1,1,1,1,1,1,1],"id":2,"left_children":[1,3,5,7,9,11,13,-1,-1,19,21,23,25,-1,-1,-1,-1,-1,-1,37,-1,-1,-1,45,-1,49,-1,-1,-1,-1,-1,-1,-1,-1,-1,-1,-1,69,-1,-1,-1,-1,-1,-1,-1,81,-1,-1,-1,-1,-1,-1,-1,-1,-1,-1,-1,-1,-1,-1,-1,-1,-1,-1,-1,-1,-1,-1,-1,-1,119,-1,-1,-1,-1,-1,-1,-1,-1,-1,-1,-1,133,-1,-1,-1,-1,-1,-1,-1,-1,-1,-1,-1,-1,-1,-1,-1,-1,-1,-1,-1,-1,-1,-1,-1,-1,-1,-1,-1,-1,-1,-1,-1,-1,-1,-1,-1,-1,167,-1,-1,-1,-1,-1,-1,-1,-1,-1,-1,-1,-1,-1,189,191,-1,-1,-1,-1,-1,-1,-1,-1,-1,-1,-1,-1,-1,-1,-1,-1,-1,-1,-1,-1,-1,-1,-1,-1,-1,-1,-1,-1,-1,-1,-1,-1,-1,-1,-1,-1,-1,-1,-1,-1,-1,-1,-1,-1,-1,-1,-1,-1,-1,-1,-1,-1,-1,-1,-1,-1,257,-1,-1,-1,-1,-1,-1,-1,-1,-1,-1,-1,-1,-1,-1,-1,-1,-1,-1,-1,-1,-1,-1,-1,-1,-1,-1,-1,-1,-1,-1,-1,-1,-1,-1,-1,-1,-1,-1,-1,-1,-1,-1,-1,-1,-1,-1,-1,-1,-1,-1,-1,-1,-1,-1,-1,-1,-1,-1,-1,-1,-1,-1,-1,-1,-1,-1,-1,-1,-1,-1,-1,-1,-1,-1,-1,-1,-1,-1,-1,-1,-1,-1,-1,-1,-1,-1,-1,-1,-1,-1,-1,-1,-1,-1,-1,-1,-1,-1,-1,-1,-1,-1,-1,-1,-1,-1,-1,-1,-1,-1,-1,-1,-1,-1,-1,-1,-1,-1,-1,-1,-1,-1,-1,-1,-1,-1,-1,-1,-1,-1,-1,-1,-1,-1,-1,-1,-1,-1,-1,-1,-1,-1,-1,-1,-1,-1,-1,-1,-1,-1,-1,-1,-1,-1,-1,-1,-1,-1,-1,-1,-1,-1,-1,-1,-1,-1,-1,-1,-1,-1,-1,-1,-1,-1,-1,-1,-1,-1,-1,-1,-1,-1,-1,-1,-1,-1,-1,-1,-1,-1,-1,-1,-1,-1,-1,-1,-1,-1,-1,-1,-1,-1,-1,-1,-1,-1,-1,-1,-1,-1,-1,-1,-1,-1,-1,-1,-1,-1,-1,-1,-1,-1,-1,-1,-1,-1,-1,-1,-1,-1,-1,-1,-1,-1,-1,-1,-1,-1,-1,-1,-1,-1,-1,-1,-1,-1,-1,-1,-1,-1,-1,-1,-1,-1,-1,-1,-1,-1,-1,-1,-1,-1,-1,-1,-1,-1,-1,-1,-1,-1,-1,-1,-1,-1,-1,-1,-1,-1,-1,-1,-1,-1,-1,-1,-1,-1,-1,-1,-1,-1,-1,-1,-1,-1,-1,-1,-1,-1,-1,-1,-1,-1,-1,-1,-1,-1,-1,-1,-1,-1,-1,-1,-1,-1,-1,-1,-1,-1,-1,-1,-1,-1,-1,-1,-1,-1,-1,-1,-1,-1,-1,-1,-1,-1,-1,-1,-1,-1,-1,-1,-1,-1,-1,-1,-1,-1,-1,-1,-1,-1,-1,-1,-1,-1,-1,-1,-1,-1,-1,-1,-1,-1,-1,-1,-1,-1,-1,-1,-1,-1,-1,-1,-1,-1,-1,-1,-1,-1,-1,-1,-1,-1,-1,-1,-1,-1,-1,-1,-1,-1,-1,-1,-1,-1,-1],"loss_changes":[8.258028E2,5.7671844E1,1.2170868E2,9.750244E0,9.781326E0,7.305952E0,2.4702942E1,3.7436523E0,2.308217E0,3.748993E0,7.5849705E0,4.8508053E0,1.8147259E0,4.670395E0,4.5968933E0,4.4458923E0,5.744461E0,0E0,9.169551E-1,5.2329254E0,2.615413E0,3.850178E0,3.928255E0,4.751745E0,5.5105257E0,8.651493E0,4.530488E0,2.4915009E0,1.9425777E0,3.7530403E0,2.0286255E0,1.2551575E0,2.1891282E0,6.433813E0,1.2949524E0,0E0,0E0,7.2733536E0,0E0,5.202768E-1,0E0,2.5150547E0,3.6666079E0,1.8679237E0,1.9970824E0,4.766189E0,3.0024385E-1,0E0,3.129119E0,4.8722906E0,3.8586204E0,3.8817153E0,3.444561E0,4.072344E0,2.6309204E0,0E0,1.8863144E0,8.306322E-1,0E0,1.9669516E0,6.940613E-1,0E0,2.4709473E0,0E0,0E0,5.701971E0,2.0227184E0,1.23668E0,7.570648E-2,2.6629715E0,4.829086E0,0E0,0E0,0E0,0E0,3.0025706E0,3.3492775E0,6.6719246E0,1.5737181E0,1.6917951E0,0E0,3.1175232E0,6.5665417E0,0E0,0E0,2.9368877E0,0E0,3.0212412E0,0E0,0E0,1.8100872E0,0E0,0E0,4.7240906E0,0E0,2.1765308E0,0E0,6.2637663E0,1.890152E0,0E0,0E0,0E0,2.220684E0,0E0,0E0,1.2413101E0,0E0,1.394764E0,0E0,1.9902611E-1,7.721389E-1,0E0,0E0,0E0,2.0465422E0,5.6566715E-1,0E0,4.7781906E0,2.0531645E0,7.5537405E0,4.3549256E0,4.152757E0,4.7326827E0,0E0,2.3138163E0,2.863926E0,4.102489E0,1.2382889E-1,4.727373E0,0E0,4.3187135E-1,2.8565612E0,0E0,1.0523636E1,2.967521E0,3.2685785E0,3.6899471E0,1.990242E0,6.8121934E0,0E0,6.0904264E-2,4.9462652E-1,0E0,0E0,1.9787521E0,2.0633278E0,0E0,3.521309E0,3.7450294E0,0E0,0E0,0E0,8.4566116E-1,0E0,0E0,1.2162018E-1,1.2349887E0,0E0,0E0,2.2162132E-1,1.108902E0,0E0,0E0,3.929243E0,1.5057831E0,2.4606636E0,1.7206078E0,1.7215047E0,1.6333618E0,2.5628805E0,0E0,2.3793476E0,1.7436876E0,9.230745E-1,2.2821877E0,0E0,0E0,2.9052753E0,0E0,0E0,1.6917951E0,0E0,0E0,0E0,9.8028374E-1,0E0,0E0,0E0,2.9534893E0,2.7740197E0,3.3183556E0,7.0632086E0,3.6505733E0,3.347115E0,1.4204292E0,0E0,3.2276702E0,4.072812E0,3.3611107E-1,0E0,0E0,0E0,0E0,0E0,0E0,0E0,1.651701E0,2.028469E0,0E0,1.547226E0,0E0,1.8548208E0,2.290413E0,1.19347E0,0E0,0E0,0E0,0E0,0E0,0E0,0E0,1.0971203E0,0E0,7.7951306E-1,4.0401077E0,1.1787033E0,1.5427314E0,0E0,1.4791231E0,5.405121E-1,0E0,5.056994E-1,0E0,8.479061E-1,0E0,2.1772895E0,0E0,2.5415359E0,0E0,1.028265E0,1.2791147E0,8.3745635E-1,0E0,2.0858488E0,1.9581748E0,5.980584E0,1.5374298E0,1.3041202E0,0E0,0E0,0E0,5.691423E0,5.1416454E0,0E0,4.8222866E0,1.5890121E0,0E0,4.3638144E0,2.406095E0,5.312481E0,3.8806014E0,6.406295E-2,4.956603E-2,1.256176E0,3.2936563E0,0E0,2.2885559E0,0E0,0E0,0E0,2.083478E0,8.094692E-1,3.6457114E0,0E0,8.8015366E-1,0E0,3.843689E-2,0E0,0E0,2.7975025E0,2.6654243E0,2.699903E0,1.552391E-1,0E0,0E0,0E0,0E0,2.8088913E0,3.9770644E0,4.8755646E-2,4.3739593E-1,0E0,5.1942086E-1,0E0,0E0,0E0,8.6528397E-1,0E0,0E0,0E0,0E0,0E0,9.3432117E-1,6.001425E0,5.3347616E0,0E0,0E0,1.5827192E0,0E0,0E0,0E0,1.1290889E0,0E0,4.1267195E0,0E0,0E0,1.2673478E0,1.8622084E0,4.4594193E-1,0E0,0E0,1.2726605E0,2.700041E0,5.076065E-1,1.5098755E0,1.5941968E0,3.1419945E0,4.0937805E-1,0E0,5.352539E0,0E0,0E0,2.4356651E0,0E0,0E0,2.7237017E0,2.3092723E0,0E0,0E0,0E0,0E0,3.3138452E0,5.930729E-1,3.243281E0,1.5864266E0,0E0,0E0,0E0,0E0,4.946518E-1,0E0,2.0137813E0,2.6811705E0,0E0,2.1708865E0,0E0,1.630841E0,3.8534495E-1,2.7702312E0,1.7959139E0,1.0437012E0,0E0,0E0,0E0,1.6988592E0,3.9225671E0,1.2990952E-1,1.4175229E0,3.5868917E0,1.7878723E-1,1.3762398E0,0E0,4.3440247E-1,0E0,0E0,0E0,0E0,0E0,0E0,7.6424503E-1,3.0179358E0,0E0,4.931134E0,5.17802E-1,0E0,0E0,0E0,0E0,0E0,1.2186055E0,0E0,3.6879098E0,0E0,1.2551286E0,0E0,2.5333233E0,0E0,3.3169212E0,4.1110287E0,0E0,0E0,0E0,0E0,0E0,0E0,0E0,1.6265156E0,0E0,0E0,3.6191158E0,0E0,0E0,0E0,0E0,1.8587937E0,0E0,7.3915195E-1,3.4873066E0,0E0,0E0,9.572594E-1,0E0,0E0,0E0,8.842816E-1,2.6139169E0,0E0,1.5985987E0,3.663565E0,0E0,5.225029E-1,1.3946643E0,6.5415287E-1,0E0,0E0,0E0,0E0,0E0,0E0,0E0,0E0,1.2323952E0,0E0,0E0,1.7896957E0,2.6848192E0,0E0,0E0,0E0,0E0,1.1725059E0,2.1208894E0,3.6969733E0,0E0,0E0,8.854471E-1,2.0506954E-1,0E0,0E0,0E0,0E0,0E0,0E0,0E0,0E0,0E0,0E0,0E0,1.1567192E0,0E0,0E0,0E0,0E0,0E0,0E0,0E0,0E0,5.208448E0,0E0,0E0,0E0,4.1698055E0,2.556903E0,1.5829654E0,0E0,0E0,0E0,0E0,0E0,1.3813543E0,0E0,0E0,0E0,0E0,1.6313869E0,2.6386261E-2,0E0,0E0,1.1454811E0,0E0,1.9178334E0,0E0,0E0,1.0769572E0,1.2891493E0,4.598545E0,7.894554E-1,0E0,0E0,0E0,1.3587513E0,0E0,0E0,0E0,3.1589484E0,0E0,0E0,0E0,0E0,0E0,2.0973625E0,0E0,0E0,2.1542969E0,0E0,1.9543972E0,3.974925E0,8.6376095E-1,2.6150079E0,0E0,0E0,0E0,0E0,1.1408126E-1,0E0,0E0,0E0,0E0,0E0,0E0,0E0,0E0,0E0,0E0,0E0,2.4819756E0,0E0,0E0,0E0,0E0,0E0,0E0,0E0,0E0,0E0,0E0,0E0,0E0,5.268264E-1,7.702818E-1,2.8148253E0,0E0,0E0,0E0,2.7406135E0,0E0,0E0,2.4159145E0,0E0,0E0,0E0,6.70876E-1,0E0,1.4331698E-1,0E0,0E0,0E0,8.7147224E-1,8.7101364E-1,0E0,0E0,0E0,0E0,0E0,0E0,0E0,0E0],"parents":[2147483647,0,0,1,1,2,2,3,3,4,4,5,5,6,6,7,7,8,8,9,9,10,10,11,11,12,12,13,13,14,14,15,15,16,16,18,18,19,19,20,20,21,21,22,22,23,23,24,24,25,25,26,26,27,27,28,28,29,29,30,30,31,31,32,32,33,33,34,34,37,37,39,39,41,41,42,42,43,43,44,44,45,45,46,46,48,48,49,49,50,50,51,51,52,52,53,53,54,54,56,56,57,57,59,59,60,60,62,62,65,65,66,66,67,67,68,68,69,69,70,70,75,75,76,76,77,77,78,78,79,79,81,81,82,82,85,85,87,87,90,90,93,93,95,95,97,97,98,98,102,102,105,105,107,107,109,109,110,110,114,114,115,115,117,117,118,118,119,119,120,120,121,121,122,122,124,124,125,125,126,126,127,127,128,128,130,130,131,131,133,133,134,134,135,135,136,136,137,137,138,138,140,140,141,141,144,144,145,145,147,147,148,148,152,152,155,155,156,156,159,159,160,160,163,163,164,164,165,165,166,166,167,167,168,168,169,169,171,171,172,172,173,173,174,174,177,177,180,180,184,184,188,188,189,189,190,190,191,191,192,192,193,193,194,194,196,196,197,197,198,198,206,206,207,207,209,209,211,211,212,212,213,213,221,221,223,223,224,224,225,225,226,226,228,228,229,229,231,231,233,233,235,235,237,237,239,239,240,240,241,241,243,243,244,244,245,245,246,246,247,247,251,251,252,252,254,254,255,255,257,257,258,258,259,259,260,260,261,261,262,262,263,263,264,264,266,266,270,270,271,271,272,272,274,274,276,276,279,279,280,280,281,281,282,282,287,287,288,288,289,289,290,290,292,292,296,296,302,302,303,303,304,304,307,307,311,311,313,313,316,316,317,317,318,318,321,321,322,322,323,323,324,324,325,325,326,326,327,327,329,329,332,332,335,335,336,336,341,341,342,342,343,343,344,344,349,349,351,351,352,352,354,354,356,356,357,357,358,358,359,359,360,360,364,364,365,365,366,366,367,367,368,368,369,369,370,370,372,372,379,379,380,380,382,382,383,383,389,389,391,391,393,393,395,395,397,397,398,398,406,406,409,409,414,414,416,416,417,417,420,420,424,424,425,425,427,427,428,428,430,430,431,431,432,432,441,441,444,444,445,445,450,450,451,451,452,452,455,455,456,456,468,468,477,477,481,481,482,482,483,483,489,489,494,494,495,495,498,498,500,500,503,503,504,504,505,505,506,506,510,510,514,514,520,520,523,523,525,525,526,526,527,527,528,528,533,533,545,545,558,558,559,559,560,560,564,564,567,567,571,571,573,573,577,577,578,578],"right_children":[2,4,6,8,10,12,14,-1,-1,20,22,24,26,-1,-1,-1,-1,-1,-1,38,-1,-1,-1,46,-1,50,-1,-1,-1,-1,-1,-1,-1,-1,-1,-1,-1,70,-1,-1,-1,-1,-1,-1,-1,82,-1,-1,-1,-1,-1,-1,-1,-1,-1,-1,-1,-1,-1,-1,-1,-1,-1,-1,-1,-1,-1,-1,-1,-1,120,-1,-1,-1,-1,-1,-1,-1,-1,-1,-1,-1,134,-1,-1,-1,-1,-1,-1,-1,-1,-1,-1,-1,-1,-1,-1,-1,-1,-1,-1,-1,-1,-1,-1,-1,-1,-1,-1,-1,-1,-1,-1,-1,-1,-1,-1,-1,-1,168,-1,-1,-1,-1,-1,-1,-1,-1,-1,-1,-1,-1,-1,190,192,-1,-1,-1,-1,-1,-1,-1,-1,-1,-1,-1,-1,-1,-1,-1,-1,-1,-1,-1,-1,-1,-1,-1,-1,-1,-1,-1,-1,-1,-1,-1,-1,-1,-1,-1,-1,-1,-1,-1,-1,-1,-1,-1,-1,-1,-1,-1,-1,-1,-1,-1,-1,-1,-1,-1,-1,258,-1,-1,-1,-1,-1,-1,-1,-1,-1,-1,-1,-1,-1,-1,-1,-1,-1,-1,-1,-1,-1,-1,-1,-1,-1,-1,-1,-1,-1,-1,-1,-1,-1,-1,-1,-1,-1,-1,-1,-1,-1,-1,-1,-1,-1,-1,-1,-1,-1,-1,-1,-1,-1,-1,-1,-1,-1,-1,-1,-1,-1,-1,-1,-1,-1,-1,-1,-1,-1,-1,-1,-1,-1,-1,-1,-1,-1,-1,-1,-1,-1,-1,-1,-1,-1,-1,-1,-1,-1,-1,-1,-1,-1,-1,-1,-1,-1,-1,-1,-1,-1,-1,-1,-1,-1,-1,-1,-1,-1,-1,-1,-1,-1,-1,-1,-1,-1,-1,-1,-1,-1,-1,-1,-1,-1,-1,-1,-1,-1,-1,-1,-1,-1,-1,-1,-1,-1,-1,-1,-1,-1,-1,-1,-1,-1,-1,-1,-1,-1,-1,-1,-1,-1,-1,-1,-1,-1,-1,-1,-1,-1,-1,-1,-1,-1,-1,-1,-1,-1,-1,-1,-1,-1,-1,-1,-1,-1,-1,-1,-1,-1,-1,-1,-1,-1,-1,-1,-1,-1,-1,-1,-1,-1,-1,-1,-1,-1,-1,-1,-1,-1,-1,-1,-1,-1,-1,-1,-1,-1,-1,-1,-1,-1,-1,-1,-1,-1,-1,-1,-1,-1,-1,-1,-1,-1,-1,-1,-1,-1,-1,-1,-1,-1,-1,-1,-1,-1,-1,-1,-1,-1,-1,-1,-1,-1,-1,-1,-1,-1,-1,-1,-1,-1,-1,-1,-1,-1,-1,-1,-1,-1,-1,-1,-1,-1,-1,-1,-1,-1,-1,-1,-1,-1,-1,-1,-1,-1,-1,-1,-1,-1,-1,-1,-1,-1,-1,-1,-1,-1,-1,-1,-1,-1,-1,-1,-1,-1,-1,-1,-1,-1,-1,-1,-1,-1,-1,-1,-1,-1,-1,-1,-1,-1,-1,-1,-1,-1,-1,-1,-1,-1,-1,-1,-1,-1,-1,-1,-1,-1,-1,-1,-1,-1,-1,-1,-1,-1,-1,-1,-1,-1,-1,-1,-1,-1,-1,-1,-1,-1,-1,-1,-1,-1,-1,-1,-1,-1,-1,-1,-1,-1,-1,-1,-1,-1,-1,-1,-1,-1,-1,-1,-1,-1,-1,-1,-1,-1,-1,-1,-1,-1,-1,-1,-1,-1,-1,-1,-1,-1,-1,-1,-1,-1,-1,-1],"split_conditions":[6.584451E-1,6.210277E-1,6.8371385E-1,2.8136343E-1,6.424103E-1,8.1926E-1,7.088749E-1,-9.607348E-2,-4.5975843E-3,5.0866544E-1,3.1725952E-1,6.7430985E-1,6.777607E-1,6.3364945E-2,1.0016057E-1,-1.036687E-1,-7.822767E-2,-4.954592E-2,2.7132094E-2,3.594035E-1,6.220876E-3,-7.677913E-3,-4.433268E-2,6.736998E-1,3.0173903E-2,9.2088974E-1,5.7539817E-2,6.525044E-2,-7.443231E-3,4.7661E-2,1.0256541E-1,-1.0576774E-1,-1.8974014E-2,-3.5636127E-2,-9.003717E-2,5.0943818E-2,-8.721723E-3,1.6757154E-1,-1.16411254E-1,4.044726E-2,-5.1038004E-2,4.8212733E-2,-1.3559013E-2,-5.0879776E-2,6.0984436E-3,3.6429536E-1,-6.609614E-2,-7.896325E-2,3.5368476E-2,4.9116034E-2,-4.146184E-2,-3.914078E-3,7.455106E-2,4.65827E-2,7.032289E-2,4.591371E-2,-3.5593435E-2,6.418098E-2,-3.740211E-2,3.5142563E-2,1.0353953E-1,-1.0968451E-1,-7.7151224E-2,2.1935506E-2,-6.9467895E-2,-5.811589E-2,4.8451964E-2,-6.515153E-2,-1.0081351E-1,-6.1478257E-2,5.707108E-1,6.013895E-2,4.5389556E-3,8.0973364E-2,-1.3967033E-2,-2.021214E-2,3.725877E-2,-4.1119523E-2,-7.557111E-2,-1.9750468E-2,5.1433794E-2,2.817034E-2,5.13733E-1,-7.842526E-2,-1.7501323E-2,3.920519E-2,-4.896706E-2,6.1111975E-2,-3.6072403E-2,-9.734184E-2,5.5602323E-3,5.0828993E-2,-5.7451975E-2,2.253566E-2,9.680933E-2,5.128179E-2,-5.082287E-2,4.7793612E-2,7.611718E-2,-7.855141E-2,1.2491448E-2,1.4673729E-2,7.472654E-2,6.547512E-2,-2.4341732E-2,8.39988E-2,1.0665079E-1,-8.450861E-2,5.7137506E-3,-8.2248636E-2,2.7440056E-2,8.546734E-2,-1.421346E-2,-9.539359E-2,-4.5383207E-2,-5.331901E-2,-1.04760595E-1,-6.608383E-2,-2.8030045E-2,5.1723546E-1,-4.6134222E-2,-3.3082124E-2,4.5638923E-3,9.080899E-2,-9.288962E-3,-5.4566603E-2,1.9706907E-2,-9.797024E-2,-3.7215006E-2,-5.9263106E-2,1.4509069E-2,2.0094488E-2,9.408945E-2,6.667312E-1,6.685672E-1,4.750989E-2,-3.4104642E-3,7.321862E-2,-2.5672014E-3,-4.447401E-2,3.6165785E-2,6.0859647E-2,-5.9227917E-2,-1.6901879E-2,5.5175897E-2,5.7878107E-2,-4.8850324E-2,8.9261666E-2,6.4574145E-2,2.8758536E-3,9.433983E-2,8.055897E-3,8.673528E-2,-6.7995302E-3,-8.99604E-2,-9.308457E-2,-3.929147E-2,-9.880385E-3,5.252836E-2,8.374241E-3,-5.965901E-2,-7.6998755E-2,-1.5729172E-2,-4.6794478E-2,-8.286994E-2,8.91205E-3,-4.7436323E-2,-4.063332E-2,6.881114E-2,-6.1983913E-2,5.0012395E-2,-1.0263319E-2,-6.358127E-2,5.994778E-2,-1.9544238E-2,-5.641228E-2,3.693519E-2,-6.040487E-2,1.5657416E-2,8.038551E-2,-1.9750468E-2,-1.10080674E-1,-4.2056303E-2,4.271831E-2,-7.5659715E-2,3.2261483E-2,-1.1671127E-2,8.849676E-2,1.2724423E-2,1.1975923E-2,-8.084813E-2,6.282612E-1,2.9618448E-2,-1.5833956E-3,5.7131756E-2,7.395332E-2,-3.069584E-2,2.762389E-2,9.003367E-2,-8.3731025E-2,7.978068E-2,4.5217898E-2,1.1000165E-2,7.503955E-2,1.1716347E-2,-1.9018719E-2,5.84899E-2,6.2372126E-2,-1.8017879E-2,9.387589E-2,2.5029457E-3,-9.0181865E-3,6.885005E-2,8.94693E-2,1.8829092E-2,-3.996436E-2,